
\data\
ngram 1=4943
ngram 2=77442
ngram 3=16063
ngram 4=8597

\1-grams:
-4.952676	4	-0.2999729
-1.15955	</s>
-99	<s>	-0.3667616
-4.139763	a	-0.3653453
-2.901524	ai	-0.4638739
-4.952676	am	-0.300967
-3.133132	an	-0.4013982
-4.952676	ang	-0.2698607
-2.405517	anh	-0.3384894
-4.350616	ao	-0.4913113
-4.776585	au	-0.2974826
-4.350616	b	-0.290409
-2.560859	ba	-0.5301638
-3.196801	ban	-0.5009211
-4.174525	bang	-0.3077688
-4.475555	banh	-0.3923287
-2.996028	bao	-0.6578894
-3.546136	bay	-0.3510675
-4.651646	be	-0.3005163
-4.776585	ben	-0.3000749
-4.952676	beng	-0.2698607
-4.174525	bi	-0.3693586
-4.077615	bia	-0.44437
-4.049586	binh	-0.3365891
-3.590948	biên	-0.5359719
-4.952676	biêng	-0.3010227
-4.776585	biếc	-0.2686754
-4.952676	biếm	-0.2698607
-3.249385	biến	-0.4462242
-4.651646	biếng	-0.2675182
-2.647325	biết	-0.3415538
-4.776585	biếu	-0.269163
-4.952676	biền	-0.3009573
-3.378645	biển	-0.3136403
-3.468376	biểu	-0.451694
-3.911283	biện	-0.8715408
-3.224323	biệt	-0.3034912
-4.952676	bo	-0.300875
-4.952676	boa	-0.2698607
-4.077615	bom	-0.2600147
-4.475555	bon	-0.4248291
-4.554736	bong	-0.4768039
-4.776585	bu	-0.299142
-4.776585	bung	-0.2992247
-3.931487	buôn	-0.4728237
-3.974953	buông	-0.3878595
-4.107578	buýt	-0.2977979
-4.651646	buốt	-0.2975534
-3.350616	buồn	-0.4324725
-4.776585	buồng	-0.2698165
-3.396374	buổi	-0.409865
-3.762344	buộc	-0.3370547
-2.827195	bà	-0.3332704
-3.285223	bài	-0.4772925
-3.156796	bàn	-0.4525254
-4.350616	bàng	-0.379011
-4.651646	bành	-0.3007175
-3.855766	bào	-0.3216625
-4.475555	bàu	-0.3500634
-3.762344	bày	-0.4418768
-3.998434	bá	-0.319689
-3.294665	bác	-0.5366109
-4.408608	bách	-0.3039176
-4.651646	bái	-0.2976364
-4.107578	bám	-0.3308544
-3.126601	bán	-0.3319048
-4.776585	báng	-0.3007563
-3.630457	bánh	-0.4007508
-3.049586	báo	-0.3805917
-4.077615	bát	-0.2953592
-4.651646	báu	-0.2967961
-4.776585	bâng	-0.477114
-4.952676	bâu	-0.300795
-3.490278	bây	-1.300225
-4.350616	bã	-0.3476636
-3.838733	bãi	-0.308982
-3.822343	bão	-0.3528928
-3.709638	bè	-0.3004529
-4.350616	bèn	-0.2993705
-4.776585	bèo	-0.2698556
-3.113827	bé	-0.2949707
-4.776585	bén	-0.2987503
-4.952676	béng	-0.2994507
-3.998434	béo	-0.3180447
-4.776585	bét	-0.4764937
-4.253706	bê	-0.2635662
-2.986535	bên	-0.4483979
-4.651646	bênh	-0.3003878
-4.651646	bêu	-0.3961517
-4.049586	bì	-0.2863614
-4.475555	bìa	-0.2960815
-3.041518	bình	-0.5112613
-4.952676	bìu	-0.2698607
-3.662642	bí	-0.5577149
-4.475555	bích	-0.3205786
-4.776585	bính	-0.4770583
-4.952676	bíu	-0.3009767
-3.806548	bò	-0.3116449
-3.952676	bó	-0.3533811
-4.408608	bóc	-0.3945635
-4.651646	bói	-0.2975168
-4.350616	bón	-0.3431037
-3.149902	bóng	-0.2979276
-4.350616	bóp	-0.3013717
-4.776585	bót	-0.2963581
-4.253706	bôi	-0.2986017
-3.891978	bông	-0.340204
-4.952676	bõm	-0.3008919
-4.952676	bõng	-0.2698607
-3.931487	bù	-0.3109089
-4.776585	bùa	-0.3006472
-4.299464	bùi	-0.2981534
-4.212314	bùn	-0.351368
-4.107578	bùng	-0.4948694
-4.253706	bú	-0.4725016
-4.554736	búa	-0.3365734
-4.651646	bún	-0.2978121
-4.952676	búng	-0.3009791
-4.776585	búp	-0.2698347
-3.873495	bút	-0.3668247
-4.554736	băn	-0.6989579
-3.891978	băng	-0.2990091
-4.952676	bĩnh	-0.2698607
-4.776585	bĩu	-0.2991274
-4.952676	bũm	-0.2698607
-4.554736	bơ	-0.2981754
-4.077615	bơi	-0.2918689
-4.475555	bơm	-0.2990666
-4.776585	bưng	-0.3008023
-4.408608	bưu	-0.4758336
-4.952676	bươi	-0.3009864
-4.776585	bươm	-0.445952
-4.952676	bươu	-0.2994459
-3.339892	bước	-0.4827851
-4.776585	bướng	-0.2993073
-4.554736	bưởi	-0.2675731
-4.776585	bạ	-0.3006278
-3.620238	bạc	-0.3825283
-3.952676	bạch	-0.3488105
-3.974953	bại	-0.3315322
-2.37461	bạn	-0.4385735
-4.077615	bạo	-0.4037705
-4.475555	bạt	-0.2984946
-4.651646	bả	-0.2971651
-2.968149	bản	-0.413605
-4.107578	bảng	-0.3090301
-4.651646	bảnh	-0.3003199
-2.977245	bảo	-0.4051931
-2.832102	bảy	-0.9834925
-4.651646	bấc	-0.3972687
-4.253706	bấm	-0.2900245
-4.952676	bấp	-0.3010203
-3.089354	bất	-0.7309176
-4.952676	bấu	-0.3010203
-4.299464	bấy	-0.563423
-4.776585	bầm	-0.3010203
-4.408608	bần	-0.3967348
-3.748556	bầu	-0.4184971
-4.776585	bầy	-0.3007926
-4.776585	bẩm	-0.2984361
-4.408608	bẩn	-0.2648604
-4.253706	bẫy	-0.2598097
-4.023257	bậc	-0.3369866
-4.139763	bận	-0.4013114
-4.776585	bập	-0.301013
-3.911283	bật	-0.3204558
-4.554736	bậy	-0.3627858
-3.56351	bắc	-0.397256
-3.974953	bắn	-0.2979472
-4.776585	bắng	-0.3006569
-4.049586	bắp	-0.3124984
-3.02071	bắt	-0.5731814
-4.952676	bằm	-0.2698607
-2.837066	bằng	-0.3295334
-4.952676	bẵng	-0.2994532
-4.776585	bặm	-0.2698503
-4.776585	bặt	-0.268798
-4.776585	bẹ	-0.2696994
-4.952676	bẹo	-0.3009549
-4.952676	bẹp	-0.3006763
-4.952676	bẹt	-0.3009259
-4.952676	bẽn	-0.3010251
-4.554736	bế	-0.2990082
-3.952676	bến	-0.4012584
-3.931487	bếp	-0.3589508
-4.952676	bết	-0.300904
-4.174525	bề	-0.3774806
-4.212314	bền	-0.4362628
-4.776585	bềnh	-0.2695745
-4.952676	bều	-0.2999268
-4.408608	bể	-0.2658961
-4.651646	bệ	-0.3008362
-4.776585	bệch	-0.2991104
-4.952676	bện	-0.2971773
-2.937736	bệnh	-0.4609194
-4.776585	bệt	-0.2997471
-4.952676	bệu	-0.3007005
-4.475555	bỉ	-0.3188041
-4.952676	bỉnh	-0.2698607
-4.952676	bỉu	-0.3006375
-2.526165	bị	-0.3195093
-4.952676	bịa	-0.2992465
-4.651646	bịch	-0.3009065
-4.651646	bịn	-0.6020503
-4.554736	bịt	-0.3674874
-4.952676	bịu	-0.299035
-4.554736	bọ	-0.2997811
-4.212314	bọc	-0.3507496
-3.600494	bọn	-0.3849996
-4.952676	bọng	-0.3010251
-4.554736	bọp	-0.4455069
-4.299464	bọt	-0.3338891
-3.139763	bỏ	-0.3301311
-3.236673	bố	-0.3459854
-3.931487	bốc	-0.3963721
-4.174525	bối	-0.6682119
-2.776585	bốn	-0.7811632
-4.952676	bống	-0.3010179
-3.855766	bồ	-0.40494
-4.077615	bồi	-0.5418972
-4.475555	bồn	-0.2615131
-4.554736	bồng	-0.3620524
-3.891978	bổ	-0.4703442
-4.776585	bổn	-0.3005769
-4.139763	bổng	-0.2826258
-4.952676	bỗ	-0.3010106
-3.855766	bỗng	-0.3358779
-2.859255	bộ	-0.3324454
-4.475555	bộc	-0.3514579
-4.350616	bội	-0.303281
-4.952676	bộng	-0.2989863
-4.107578	bột	-0.2637457
-4.776585	bới	-0.3005551
-4.107578	bớt	-0.2635002
-3.776585	bờ	-0.3800135
-4.651646	bời	-0.2670497
-4.952676	bờm	-0.2698607
-4.776585	bở	-0.2963851
-3.350616	bởi	-0.3514727
-4.776585	bỡ	-0.4771043
-4.651646	bợ	-0.3661251
-4.952676	bợm	-0.3009888
-4.952676	bợn	-0.3009598
-4.952676	bụa	-0.2698607
-4.651646	bục	-0.3972979
-4.212314	bụi	-0.3516585
-3.735192	bụng	-0.3198403
-4.651646	bụt	-0.3957552
-4.952676	bủa	-0.3010058
-4.952676	bủm	-0.2968963
-3.640922	bức	-0.5193182
-4.776585	bứt	-0.3007223
-4.475555	bừa	-0.5419052
-4.554736	bừng	-0.2677744
-4.952676	bửu	-0.2698607
-3.685504	bữa	-0.4186146
-4.776585	bự	-0.2988719
-4.212314	bực	-0.6333821
-4.651646	c	-0.2997204
-3.361612	ca	-0.3606754
-4.475555	cai	-0.2628715
-3.911283	cam	-0.4053969
-3.931487	can	-0.4433887
-4.139763	canh	-0.3145212
-2.880794	cao	-0.3971449
-4.212314	cay	-0.2605917
-3.275983	cha	-0.4028161
-4.253706	chai	-0.2851363
-4.776585	chan	-0.4769663
-4.952676	chang	-0.3010033
-4.554736	chanh	-0.2602328
-4.651646	chao	-0.3008265
-4.174525	chay	-0.3297075
-3.952676	che	-0.4088747
-4.952676	chem	-0.301013
-4.299464	chen	-0.4118871
-4.952676	cheng	-0.3007151
-4.776585	cheo	-0.2964805
-3.253706	chi	-0.4920214
-3.324287	chia	-0.5278212
-3.806548	chim	-0.3050943
-4.776585	chinh	-0.4768887
-4.952676	chiu	-0.3008629
-4.408608	chiêm	-0.3657132
-4.651646	chiên	-0.3006593
-4.952676	chiêng	-0.2698607
-4.299464	chiêu	-0.3829108
-3.139763	chiếc	-0.4726274
-3.974953	chiếm	-0.3888844
-3.378645	chiến	-0.5818836
-4.952676	chiếng	-0.3006957
-4.408608	chiết	-0.365301
-3.911283	chiếu	-0.279825
-4.952676	chiền	-0.3006569
-3.490278	chiều	-0.3108755
-4.952676	chiểu	-0.2955619
-2.186635	cho	-0.4291106
-4.952676	choang	-0.3006448
-4.475555	chong	-0.5439131
-4.651646	choàng	-0.3002908
-4.554736	choáng	-0.3367894
-4.776585	choèn	-0.445952
-4.952676	choạc	-0.3010106
-4.952676	choạng	-0.2698607
-4.952676	choảng	-0.2981949
-4.952676	choắt	-0.3010203
-4.049586	chu	-0.5428581
-4.174525	chua	-0.3033997
-4.174525	chui	-0.3312403
-4.408608	chum	-0.4435781
-3.2284	chung	-0.4224738
-3.26248	chuyên	-0.5985885
-3.685504	chuyến	-0.4518582
-4.253706	chuyền	-0.2929726
-3.339892	chuyển	-0.3470809
-2.91525	chuyện	-0.305422
-4.952676	chuôi	-0.3009743
-4.299464	chuông	-0.2988316
-3.350616	chuẩn	-0.5168225
-4.952676	chuốc	-0.300749
-4.408608	chuối	-0.5708258
-4.952676	chuốt	-0.3006836
-4.952676	chuồi	-0.3007684
-4.952676	chuồn	-0.2994532
-4.174525	chuồng	-0.3736547
-4.408608	chuỗi	-0.2659276
-4.554736	chuộc	-0.3675165
-4.475555	chuộng	-0.2642678
-3.931487	chuột	-0.3091666
-4.475555	chà	-0.2962554
-4.475555	chài	-0.3001064
-4.952676	chàm	-0.3010251
-3.697404	chàng	-0.4515724
-4.952676	chành	-0.3010203
-3.748556	chào	-0.3707143
-4.952676	chày	-0.2698607
-4.554736	chác	-0.2687719
-4.651646	chái	-0.3963851
-4.174525	chán	-0.2835396
-4.651646	chánh	-0.3638524
-4.475555	cháo	-0.2994289
-4.475555	chát	-0.2970919
-3.440793	cháu	-0.2762702
-3.806548	cháy	-0.3680854
-4.408608	châm	-0.3970504
-3.071862	chân	-0.3015066
-3.475555	châu	-0.5502908
-4.952676	chã	-0.2999268
-4.952676	chão	-0.2698607
-4.174525	chè	-0.3101333
-4.776585	chèn	-0.299599
-4.299464	chèo	-0.263867
-4.776585	ché	-0.445952
-4.023257	chém	-0.4680756
-4.107578	chén	-0.4658174
-4.776585	chéo	-0.2698556
-4.408608	chép	-0.2680698
-4.776585	chét	-0.3009452
-4.107578	chê	-0.4148687
-4.952676	chêm	-0.3006448
-4.408608	chênh	-0.4759817
-4.554736	chì	-0.3624842
-4.253706	chìm	-0.318767
-4.952676	chìu	-0.2993195
-3.232517	chí	-0.2576891
-4.475555	chích	-0.269512
-2.827195	chín	-0.9802073
-2.726076	chính	-0.5853454
-4.651646	chít	-0.2975729
-4.952676	chíu	-0.3010203
-4.776585	chò	-0.3008241
-4.952676	chòm	-0.3009549
-4.952676	chòng	-0.3010106
-3.838733	chó	-0.3333716
-4.554736	chóe	-0.3672983
-4.776585	chói	-0.2697046
-3.911283	chóng	-0.2897014
-4.475555	chót	-0.2629032
-4.651646	chôn	-0.2996937
-4.776585	chông	-0.3010082
-4.651646	chù	-0.6020503
-3.791308	chùa	-0.3144689
-4.776585	chùi	-0.3000021
-4.408608	chùm	-0.299905
-3.334628	chú	-0.3675489
-3.891978	chúa	-0.3440902
-3.791308	chúc	-0.4405985
-4.776585	chúi	-0.3005769
-2.590005	chúng	-0.7282063
-3.427632	chút	-0.3510092
-3.640922	chăm	-0.7291987
-4.107578	chăn	-0.4118257
-3.998434	chăng	-0.3347582
-4.952676	chĩn	-0.2698607
-4.952676	chũi	-0.2698607
-4.952676	chũn	-0.3010251
-4.776585	chơ	-0.4771067
-3.083444	chơi	-0.2968406
-4.651646	chư	-0.3966766
-2.819137	chưa	-0.4732423
-4.299464	chưng	-0.2642124
-3.421197	chương	-0.8085413
-4.554736	chước	-0.2904313
-4.651646	chướng	-0.601968
-4.952676	chườm	-0.2999778
-4.952676	chược	-0.298665
-4.952676	chạch	-0.3010033
-3.931487	chạm	-0.3382493
-4.952676	chạn	-0.3009791
-4.952676	chạnh	-0.3007369
-4.475555	chạp	-0.3133625
-3.329427	chạy	-0.3510988
-3.873495	chả	-0.4111622
-4.952676	chải	-0.3010106
-4.952676	chảo	-0.3009331
-3.891978	chảy	-0.3055646
-3.855766	chấm	-0.4244565
-3.998434	chấn	-0.6415647
-3.546136	chấp	-0.6711533
-3.143116	chất	-0.461495
-4.776585	chấu	-0.2993487
-4.952676	chầm	-0.3009428
-4.651646	chầu	-0.2698373
-4.952676	chẩm	-0.2698607
-4.651646	chẩn	-0.3973924
-3.697404	chậm	-0.4206044
-4.174525	chập	-0.5735176
-4.299464	chật	-0.3281415
-4.408608	chậu	-0.3077663
-3.314187	chắc	-0.4695111
-4.952676	chắm	-0.2996378
-3.610254	chắn	-0.3129635
-4.554736	chắp	-0.3672328
-4.554736	chắt	-0.3679332
-4.776585	chằm	-0.2996306
-4.952676	chằn	-0.298665
-4.651646	chằng	-0.3976881
-3.139763	chẳng	-0.5378468
-4.952676	chẵn	-0.2698607
-4.212314	chặn	-0.3099039
-4.299464	chặng	-0.5614681
-3.911283	chặt	-0.3340828
-4.952676	chẹn	-0.3007587
-4.952676	chẹo	-0.3010082
-4.952676	chẹp	-0.3009452
-4.776585	chẻ	-0.3009912
-4.776585	chẽ	-0.3005769
-4.952676	chẽn	-0.2955619
-3.200628	chế	-0.4104091
-3.253706	chết	-0.3685688
-4.776585	chề	-0.2955791
-4.952676	chềnh	-0.3010251
-4.952676	chểnh	-0.3010106
-4.776585	chệch	-0.3008362
-2.551276	chỉ	-0.4138305
-3.673923	chỉnh	-0.3271439
-3.003286	chị	-0.2503906
-4.776585	chịt	-0.2696682
-3.289918	chịu	-0.3838776
-4.350616	chọc	-0.2984483
-4.408608	chọi	-0.3862954
-3.224323	chọn	-0.3350851
-4.776585	chọt	-0.2697801
-4.952676	chỏ	-0.2996378
-4.952676	chỏm	-0.300967
-4.952676	chỏn	-0.3010251
-4.554736	chốc	-0.4413015
-4.077615	chối	-0.3333282
-4.212314	chốn	-0.349247
-3.497831	chống	-0.3823211
-4.212314	chốt	-0.3068354
-4.651646	chồi	-0.3945659
-4.554736	chồm	-0.2978926
-4.952676	chồn	-0.2698607
-3.280578	chồng	-0.3394682
-4.350616	chổi	-0.3790037
-3.384475	chỗ	-0.3069357
-4.952676	chộp	-0.2979194
-4.253706	chớ	-0.2572728
-4.776585	chới	-0.4751262
-4.952676	chớp	-0.3006375
-3.408608	chờ	-0.3366273
-4.475555	chờn	-0.3900227
-3.791308	chở	-0.2895609
-3.630457	chợ	-0.276663
-4.952676	chợp	-0.3006375
-4.023257	chợt	-0.3357292
-3.662642	chục	-0.4372169
-4.776585	chụm	-0.2966982
-4.023257	chụp	-0.6178647
-2.944076	chủ	-0.5364329
-4.350616	chủng	-0.2960948
-3.356079	chứ	-0.4654729
-4.107578	chứa	-0.325709
-3.146496	chức	-0.3560286
-3.240869	chứng	-0.4766175
-4.776585	chừ	-0.2977804
-3.791308	chừng	-0.3725199
-4.952676	chửa	-0.3009598
-4.554736	chửi	-0.3678872
-4.952676	chửng	-0.3000409
-3.620238	chữ	-0.2886353
-3.610254	chữa	-0.4537117
-4.651646	chững	-0.2982388
-4.776585	chực	-0.2993632
-4.049586	co	-0.3922389
-3.475555	coi	-0.4113335
-2.421197	con	-0.3631637
-4.350616	cong	-0.2941376
-4.212314	cu	-0.3513293
-4.408608	cua	-0.33376
-4.952676	cun	-0.3010203
-3.52943	cung	-0.4892259
-4.952676	cuông	-0.2994507
-4.776585	cuốc	-0.3004218
-3.258071	cuối	-0.7134686
-3.735192	cuốn	-0.4903105
-4.651646	cuống	-0.2968376
-4.952676	cuồn	-0.301013
-4.475555	cuồng	-0.2987089
-4.952676	cuỗm	-0.3003005
-2.891979	cuộc	-0.5834282
-4.475555	cuội	-0.39219
-4.408608	cuộn	-0.2969184
-3.600494	cà	-0.666991
-4.107578	cài	-0.5526257
-3.189248	càng	-0.3319425
-4.212314	cành	-0.4726378
-4.554736	cào	-0.2983435
-4.952676	càu	-0.3010251
-4.554736	cày	-0.2689857
-3.212314	cá	-0.3591042
-2.205264	các	-0.4594997
-2.814373	cách	-0.3153955
-2.708399	cái	-0.3137091
-3.998434	cám	-0.5028186
-3.806548	cán	-0.9993117
-4.651646	cáng	-0.2667799
-3.537703	cánh	-0.4471489
-3.600494	cáo	-0.2731848
-4.253706	cáp	-0.3216452
-4.023257	cát	-0.2923824
-4.651646	cáu	-0.2680123
-4.408608	cáy	-0.5707815
-4.554736	câm	-0.2957017
-3.748556	cân	-0.5438002
-3.074729	câu	-0.5401421
-3.136435	cây	-0.320495
-4.174525	cãi	-0.3319761
-4.174525	cò	-0.3410728
-4.350616	còi	-0.3000045
-4.651646	còm	-0.2698425
-2.553003	còn	-0.2807537
-4.408608	còng	-0.3059424
-1.902683	có	-0.4096935
-4.174525	cóc	-0.3743652
-4.952676	cói	-0.2993778
-4.952676	cóng	-0.2698607
-4.475555	cóp	-0.351453
-4.952676	cót	-0.3008604
-2.692605	cô	-0.3817201
-4.408608	côi	-0.365032
-4.952676	côm	-0.2698607
-4.408608	côn	-0.6017451
-2.440125	công	-0.5807782
-4.554736	cõi	-0.2944054
-4.952676	cõng	-0.3006787
-4.408608	cù	-0.3574167
-4.776585	cùi	-0.3010033
-4.952676	cùn	-0.2698607
-2.917246	cùng	-0.2981641
-3.891978	cú	-0.3221368
-4.408608	cúc	-0.3388509
-4.350616	cúi	-0.3748364
-4.350616	cúm	-0.4362758
-4.350616	cúng	-0.3005059
-4.776585	cúp	-0.2992004
-4.651646	cút	-0.3667214
-4.776585	căm	-0.3009525
-3.482854	căn	-0.8266214
-4.023257	căng	-0.591351
-3.685504	cũ	-0.4023479
-4.952676	cũi	-0.3009816
-4.776585	cũn	-0.3008217
-2.318703	cũng	-0.4943733
-2.877129	cơ	-0.7072212
-4.952676	cơi	-0.3010203
-3.468376	cơm	-0.2985579
-3.620238	cơn	-0.4736935
-3.662642	cư	-0.3099993
-4.651646	cưa	-0.2995601
-4.776585	cưng	-0.2923377
-4.952676	cưu	-0.3007005
-4.299464	cương	-0.3804245
-4.651646	cước	-0.3665444
-3.911283	cưới	-0.2729301
-3.952676	cướp	-0.3367423
-3.339892	cười	-0.3274619
-4.776585	cườm	-0.445952
-3.873495	cường	-0.2883539
-4.475555	cưỡi	-0.3510891
-4.475555	cưỡng	-0.5422165
-4.952676	cạc	-0.2698607
-4.554736	cạch	-0.3634249
-4.651646	cạm	-0.6020358
-4.299464	cạn	-0.3363599
-3.440793	cạnh	-0.4113104
-4.776585	cạo	-0.2698478
-4.299464	cạp	-0.4125475
-4.952676	cạu	-0.2698607
-4.952676	cạy	-0.300795
-2.643046	cả	-0.3664974
-3.572465	cải	-0.5199297
-2.895771	cảm	-0.6264145
-4.212314	cản	-0.3177144
-4.253706	cảng	-0.3617887
-3.133132	cảnh	-0.3688659
-4.952676	cảo	-0.300984
-3.952676	cấm	-0.2648792
-3.174525	cấp	-0.3556758
-4.139763	cất	-0.313718
-4.077615	cấu	-0.4313439
-4.299464	cấy	-0.3291149
-3.590948	cầm	-0.2989434
-2.857507	cần	-0.3621893
-2.95051	cầu	-0.3319919
-4.952676	cầy	-0.3008968
-4.212314	cẩm	-0.3513654
-4.023257	cẩn	-0.953821
-4.350616	cẩu	-0.5193704
-4.952676	cẫng	-0.3001622
-3.891978	cận	-0.348787
-4.023257	cập	-0.3193314
-4.554736	cật	-0.6986988
-3.600494	cậu	-0.4073253
-4.475555	cậy	-0.3142883
-4.952676	cắc	-0.3010203
-4.350616	cắm	-0.3771129
-4.139763	cắn	-0.3977648
-4.299464	cắp	-0.2635741
-3.600494	cắt	-0.3777013
-4.776585	cằm	-0.2951154
-4.952676	cằn	-0.3010227
-4.776585	cẳng	-0.3004872
-4.952676	cặm	-0.3010251
-4.952676	cặn	-0.301013
-3.911283	cặp	-0.3914506
-4.350616	cọ	-0.2589782
-4.077615	cọc	-0.341341
-4.952676	cọn	-0.2999778
-4.952676	cọng	-0.3010106
-4.651646	cọp	-0.2972677
-4.952676	cọt	-0.3010082
-3.838733	cỏ	-0.365573
-4.475555	cỏi	-0.3485204
-4.952676	cỏm	-0.3008919
-3.319208	cố	-0.4189779
-4.475555	cốc	-0.2948232
-4.299464	cối	-0.4416327
-4.651646	cốm	-0.295405
-4.174525	cống	-0.3392079
-4.253706	cốt	-0.2910076
-4.952676	cồ	-0.3009646
-4.776585	cồm	-0.3007296
-4.475555	cồn	-0.394534
-4.776585	cồng	-0.477114
-3.204488	cổ	-0.3796595
-3.974953	cổng	-0.3730548
-4.475555	cỗ	-0.3501048
-4.952676	cỗi	-0.298665
-4.776585	cộ	-0.3005527
-4.651646	cội	-0.2994993
-3.673923	cộng	-0.6270748
-4.952676	cộp	-0.2698607
-3.911283	cột	-0.3214455
-4.554736	cớ	-0.2679678
-3.891978	cờ	-0.3266335
-4.952676	cời	-0.3009937
-4.299464	cởi	-0.5607362
-4.107578	cỡ	-0.2915523
-4.952676	cỡi	-0.3010009
-4.952676	cỡn	-0.3008265
-4.651646	cợt	-0.5708908
-3.396374	cụ	-0.4333813
-3.762344	cục	-0.3239267
-4.952676	cụi	-0.3009307
-4.475555	cụm	-0.3197601
-4.776585	cụp	-0.3005042
-4.408608	cụt	-0.4757388
-4.253706	củ	-0.292928
-2.023513	của	-0.5282394
-4.350616	củi	-0.335562
-4.651646	củng	-0.3975645
-3.003286	cứ	-0.3132948
-4.952676	cứa	-0.3007587
-3.891978	cứng	-0.3479889
-3.309224	cứu	-0.3692204
-4.952676	cừ	-0.2698607
-4.651646	cừu	-0.3667369
-3.685504	cử	-0.390048
-3.266935	cửa	-0.4058964
-4.952676	cửi	-0.3005818
-4.139763	cửu	-0.441149
-4.952676	cữ	-0.3002568
-4.651646	cự	-0.3009549
-4.776585	cựa	-0.3001574
-3.521312	cực	-0.3547174
-4.651646	cựu	-0.299035
-4.952676	d	-0.2698607
-3.402448	da	-0.3187817
-4.475555	dai	-0.4257798
-4.952676	dan	-0.2998127
-4.651646	dang	-0.297043
-3.482854	danh	-0.3683316
-3.891978	dao	-0.3670623
-3.651646	di	-0.5991079
-4.776585	dim	-0.477114
-4.107578	dinh	-0.6280595
-4.952676	diêm	-0.2698607
-4.952676	diên	-0.2987868
-4.952676	diêu	-0.3010203
-4.952676	diếc	-0.2698607
-4.952676	diết	-0.2698607
-4.952676	diếu	-0.2976413
-4.651646	diều	-0.2955938
-4.952676	diễm	-0.3009307
-3.123373	diễn	-0.4648074
-4.651646	diệc	-0.2689492
-4.952676	diệm	-0.2987868
-3.581608	diện	-0.399792
-4.350616	diệp	-0.3288872
-4.299464	diệt	-0.3797475
-4.408608	diệu	-0.2652155
-2.854033	do	-0.2772037
-3.236673	doanh	-0.4891438
-4.776585	doi	-0.300543
-4.651646	dong	-0.3007587
-4.776585	doãn	-0.4769808
-3.309224	du	-0.8489649
-4.952676	dua	-0.2971773
-3.475555	dung	-0.326254
-3.806548	duy	-0.4791649
-3.931487	duyên	-0.3440773
-4.174525	duyệt	-0.470664
-4.776585	duỗi	-0.4770026
-4.350616	dà	-0.3000506
-3.212314	dài	-0.3890986
-4.299464	dàn	-0.4766076
-3.806548	dàng	-0.3745164
-3.52943	dành	-0.6023202
-4.554736	dào	-0.2653575
-4.107578	dày	-0.3237279
-4.776585	dác	-0.3005939
-3.630457	dám	-0.290267
-4.408608	dán	-0.298251
-3.735192	dáng	-0.3200337
-4.952676	dáo	-0.3010227
-4.952676	dát	-0.300766
-4.350616	dâm	-0.4347489
-2.798861	dân	-0.3462295
-4.253706	dâng	-0.3939016
-4.212314	dâu	-0.317332
-3.537703	dây	-0.3474252
-4.253706	dã	-0.5686972
-4.952676	dãi	-0.3009331
-4.952676	dãng	-0.2698607
-4.350616	dãy	-0.3774469
-4.408608	dè	-0.2961868
-4.554736	dép	-0.267458
-4.554736	dê	-0.6987399
-4.253706	dì	-0.3594958
-4.952676	dìu	-0.3010251
-4.952676	dí	-0.3010251
-4.253706	dính	-0.3212209
-4.350616	dò	-0.2621808
-4.952676	dòi	-0.2965148
-4.952676	dòm	-0.3010082
-3.56351	dòng	-0.4226369
-4.776585	dó	-0.2664863
-4.776585	dóc	-0.300155
-4.952676	dóm	-0.3009598
-4.952676	dôi	-0.3009331
-4.651646	dông	-0.2686832
-4.174525	dõi	-0.3144056
-4.651646	dõng	-0.3976857
-3.285223	dù	-0.3070647
-4.952676	dùi	-0.3009985
-3.139763	dùng	-0.2970504
-4.952676	dúi	-0.2698607
-4.952676	dúm	-0.3010227
-4.952676	dún	-0.3010251
-4.651646	dăm	-0.3007393
-4.952676	dăn	-0.3010082
-4.952676	dăng	-0.3009573
-3.998434	dĩ	-0.5305344
-4.776585	dĩa	-0.445952
-3.891978	dũng	-0.3301542
-4.952676	dơi	-0.2698607
-4.023257	dư	-0.5143915
-4.077615	dưa	-0.2977499
-4.475555	dưng	-0.2971994
-3.610254	dương	-0.2994628
-3.339892	dưới	-0.3228737
-3.776585	dường	-1.187436
-3.762344	dưỡng	-0.2686646
-4.023257	dược	-0.290919
-4.952676	dượt	-0.3007248
-3.952676	dạ	-0.3989536
-4.776585	dạc	-0.4770583
-4.350616	dại	-0.302071
-4.952676	dạm	-0.3006424
-4.776585	dạn	-0.3002932
-3.776585	dạng	-0.2883306
-4.023257	dạo	-0.5080758
-4.952676	dạt	-0.2992465
-3.505518	dạy	-0.3451805
-4.952676	dả	-0.2698607
-4.776585	dải	-0.3004145
-4.952676	dấm	-0.3010251
-4.776585	dấn	-0.4767458
-4.952676	dấp	-0.2991225
-3.709638	dấu	-0.423584
-4.952676	dấy	-0.3001622
-4.475555	dầm	-0.2965858
-3.581608	dần	-0.3760405
-3.651646	dầu	-0.3117827
-4.952676	dẩn	-0.2698607
-4.776585	dẫm	-0.4760035
-3.299464	dẫn	-0.4195188
-4.475555	dẫu	-0.5432974
-4.952676	dẫy	-0.3009912
-4.952676	dậm	-0.3006618
-4.174525	dập	-0.3419149
-3.911283	dậy	-0.3246152
-4.077615	dắt	-0.3182073
-4.776585	dằn	-0.3009985
-4.952676	dằng	-0.3010251
-4.651646	dẳng	-0.2656071
-4.952676	dặc	-0.300036
-4.952676	dặm	-0.2971773
-4.952676	dặn	-0.3003902
-4.952676	dặt	-0.2698607
-4.107578	dẹp	-0.3829123
-4.952676	dẹt	-0.3007102
-4.554736	dẻo	-0.3347552
-4.776585	dế	-0.2698556
-4.554736	dề	-0.2675129
-4.952676	dềnh	-0.2999268
-3.309224	dễ	-0.4667958
-4.475555	dệt	-0.2691422
-3.776585	dị	-0.4256323
-3.334628	dịch	-0.4608958
-3.891978	dịp	-0.3323749
-4.174525	dịu	-0.4487674
-4.139763	dọa	-0.2824356
-3.822343	dọc	-0.3168256
-3.974953	dọn	-0.4755906
-4.952676	dỏng	-0.2698607
-4.299464	dốc	-0.3343316
-4.212314	dối	-0.3465123
-4.651646	dốt	-0.2637852
-4.651646	dồi	-0.3006593
-4.212314	dồn	-0.3456096
-4.350616	dỗ	-0.3275689
-4.776585	dỗi	-0.2685919
-4.408608	dội	-0.2630512
-4.651646	dột	-0.3667109
-4.952676	dớ	-0.3010251
-4.475555	dời	-0.2981925
-4.952676	dờn	-0.299035
-4.299464	dở	-0.3344467
-4.253706	dỡ	-0.3629372
-4.023257	dụ	-0.3272973
-3.454365	dục	-0.2989798
-2.968149	dụng	-0.2827547
-4.554736	dứa	-0.3669489
-4.049586	dứt	-0.3898149
-4.023257	dừa	-0.3032166
-3.855766	dừng	-0.4696476
-4.952676	dử	-0.3010251
-4.952676	dửng	-0.3010154
-3.891978	dữ	-0.4018339
-3.160285	dự	-0.6619116
-3.891978	dựa	-0.5785858
-4.776585	dực	-0.445952
-3.334628	dựng	-0.3206193
-4.299464	e	-0.4454002
-2.541056	em	-0.3523296
-4.475555	eo	-0.4259106
-4.023257	ga	-0.3057151
-4.952676	gai	-0.2993122
-4.651646	gam	-0.601796
-4.299464	gan	-0.2969256
-4.952676	gang	-0.3010179
-4.776585	ganh	-0.3009549
-4.776585	gao	-0.2965099
-4.475555	gay	-0.5440414
-4.554736	gen	-0.443599
-4.253706	ghe	-0.3182242
-4.651646	ghen	-0.3007126
-3.572465	ghi	-0.4406336
-4.651646	ghim	-0.2995552
-4.952676	ghiền	-0.3009743
-4.776585	ghè	-0.4750216
-4.952676	ghèn	-0.3006618
-4.408608	ghé	-0.3969072
-4.776585	ghém	-0.4770801
-4.253706	ghép	-0.2870111
-4.107578	ghét	-0.3550448
-4.174525	ghê	-0.4079458
-4.952676	ghì	-0.2993802
-4.952676	ghìm	-0.3007684
-4.776585	ghẹ	-0.4766464
-4.952676	ghẹo	-0.2698607
-4.475555	ghẻ	-0.4256683
-4.952676	ghẽ	-0.2698607
-4.023257	ghế	-0.3479912
-4.651646	ghề	-0.296642
-4.651646	ghềnh	-0.2679783
-4.952676	ghểnh	-0.3006618
-4.952676	ghệt	-0.3004581
-2.828825	gia	-0.5313407
-3.931487	giai	-0.8841705
-4.408608	giam	-0.3033855
-3.005733	gian	-0.3209317
-3.722227	giang	-0.3546275
-4.776585	gianh	-0.445952
-3.212314	giao	-0.5857644
-4.651646	gieo	-0.3964871
-4.776585	gion	-0.477114
-4.952676	giua	-0.2698607
-4.350616	giun	-0.3028763
-3.581608	già	-0.2727043
-4.651646	giàn	-0.3976493
-4.253706	giành	-0.3228217
-3.838733	giàu	-0.3438298
-4.049586	giày	-0.3635877
-2.847166	giá	-0.3850696
-3.440793	giác	-0.2613562
-3.572465	giám	-0.9444652
-4.554736	gián	-0.4766464
-4.350616	giáng	-0.3307873
-3.181824	giáo	-0.5898409
-4.475555	giáp	-0.298833
-4.299464	giây	-0.3266052
-4.554736	giã	-0.2997544
-3.911283	giãn	-0.3924388
-4.776585	giãy	-0.3009791
-4.952676	gièm	-0.3009428
-4.952676	gié	-0.3009791
-4.776585	giêng	-0.2958585
-4.554736	giò	-0.2687119
-4.776585	giòn	-0.2954246
-3.468376	gió	-0.3131494
-4.952676	gión	-0.299424
-4.651646	gióng	-0.3967422
-4.952676	giô	-0.2698607
-4.952676	giông	-0.3008968
-4.475555	giùm	-0.2625515
-4.952676	giú	-0.3009912
-3.18552	giúp	-0.3533844
-4.952676	giăm	-0.3009743
-4.651646	giăng	-0.2997836
-4.776585	giũ	-0.2695224
-4.776585	giũa	-0.2933469
-4.408608	giơ	-0.3948757
-4.952676	giương	-0.3009985
-4.952676	giướng	-0.2989303
-3.974953	giường	-0.3282418
-4.952676	giạt	-0.2999268
-3.372893	giả	-0.285669
-3.038862	giải	-0.5627896
-3.408608	giảm	-0.3472923
-3.610254	giản	-0.4039187
-3.791308	giảng	-0.5359229
-4.651646	giảnh	-0.268391
-4.952676	giảo	-0.2996378
-3.911283	giấc	-0.6463297
-4.952676	giấm	-0.3004727
-4.952676	giấp	-0.3009065
-4.139763	giấu	-0.3897242
-3.414857	giấy	-0.3673531
-4.952676	giầm	-0.3009864
-4.952676	giần	-0.3009622
-4.952676	giầy	-0.300858
-4.952676	giẫm	-0.3009743
-4.776585	giậm	-0.4767531
-3.998434	giận	-0.3506894
-4.952676	giập	-0.3000409
-3.952676	giật	-0.3994301
-4.952676	giắt	-0.3007684
-4.952676	giằm	-0.3010106
-4.952676	giằn	-0.3010058
-4.776585	giằng	-0.3009695
-4.651646	giặc	-0.2992539
-4.952676	giặm	-0.298665
-4.952676	giặn	-0.3001501
-4.253706	giặt	-0.4155176
-4.952676	giẹo	-0.3010251
-4.952676	giếm	-0.3010082
-4.651646	giếng	-0.2988646
-4.023257	giết	-0.4014455
-4.776585	giềng	-0.296823
-4.554736	giễu	-0.3350244
-4.952676	giọ	-0.2698607
-3.931487	giọng	-0.3276475
-4.049586	giọt	-0.4567158
-4.651646	giỏ	-0.2987162
-3.651646	giỏi	-0.3924566
-4.776585	giỏn	-0.445952
-3.546136	giống	-0.5584599
-4.952676	giồng	-0.3010251
-4.776585	giỗ	-0.3010154
-3.107578	giới	-0.4108487
-2.893871	giờ	-0.3145779
-4.651646	giời	-0.267913
-4.952676	giở	-0.3008556
-4.554736	giỡn	-0.2671806
-4.952676	giụa	-0.2698607
-4.651646	giục	-0.3976542
-4.952676	giủi	-0.2698607
-3.396374	giữ	-0.34353
-3.249385	giữa	-0.3402084
-4.408608	giựt	-0.8139288
-4.952676	go	-0.3008071
-4.651646	gom	-0.2975095
-4.776585	gu	-0.3006884
-4.776585	guốc	-0.4770752
-4.952676	guộc	-0.2999268
-3.651646	gà	-0.2949606
-4.776585	gài	-0.3007417
-4.952676	gàn	-0.2698607
-4.952676	gàng	-0.2971773
-4.952676	gành	-0.3007975
-4.651646	gào	-0.2996621
-4.952676	gàu	-0.299684
-4.350616	gác	-0.2659722
-3.113827	gái	-0.32561
-4.651646	gán	-0.264655
-3.911283	gánh	-0.4558574
-4.952676	gáo	-0.3009888
-4.776585	gáp	-0.2676045
-4.554736	gáy	-0.3578617
-4.212314	gân	-0.3487652
-3.266935	gây	-0.3996297
-4.023257	gã	-0.3619027
-4.651646	gãi	-0.3978262
-4.651646	gãy	-0.3002496
-2.754019	gì	-0.4685528
-4.554736	gìn	-0.2688475
-4.776585	gí	-0.4770873
-4.299464	gò	-0.3261475
-3.838733	gòn	-0.3406387
-4.776585	góa	-0.2966982
-3.776585	góc	-0.2978528
-4.023257	gói	-0.3163562
-3.791308	góp	-0.3313654
-4.554736	gót	-0.3307796
-4.952676	gô	-0.3007587
-4.776585	gôn	-0.2972702
-4.776585	gông	-0.3008895
-4.077615	gõ	-0.4359854
-4.651646	gù	-0.2975168
-4.776585	gú	-0.445952
-4.651646	gút	-0.3962976
-4.776585	găm	-0.3008314
-4.253706	gũi	-0.4378205
-4.952676	gươm	-0.3006763
-3.873495	gương	-0.5129419
-4.952676	gườm	-0.2968963
-4.952676	gường	-0.3010203
-4.651646	gượng	-0.2685058
-4.952676	gạ	-0.3010251
-3.952676	gạch	-0.311585
-4.952676	gạn	-0.3009985
-4.212314	gạo	-0.3445586
-4.475555	gạt	-0.3190759
-4.952676	gả	-0.3003708
-4.952676	gảy	-0.3007999
-4.023257	gấp	-0.3996028
-4.475555	gấu	-0.3182598
-4.952676	gấy	-0.3009985
-4.776585	gầm	-0.296686
-3.200628	gần	-0.4875878
-4.776585	gầu	-0.4756173
-4.049586	gầy	-0.3125174
-4.952676	gẫm	-0.2991225
-4.475555	gẫu	-0.3903987
-4.554736	gập	-0.4768403
-4.554736	gật	-0.4759549
-4.408608	gậy	-0.2629429
-4.408608	gắm	-0.3352249
-3.806548	gắn	-0.5289148
-3.776585	gắng	-0.3263249
-4.952676	gắp	-0.301013
-4.299464	gắt	-0.2927368
-4.952676	gằn	-0.3009791
-4.651646	gặm	-0.3979206
-4.952676	gặn	-0.3006424
-4.776585	gặng	-0.4767337
-3.153336	gặp	-0.3480312
-4.952676	gặt	-0.3000458
-4.554736	gỉ	-0.3359847
-3.304316	gọi	-0.425271
-4.253706	gọn	-0.3626878
-4.952676	gọt	-0.3005551
-4.952676	gỏi	-0.3007635
-4.952676	gỏng	-0.2995261
-3.791308	gốc	-0.3653214
-3.931487	gối	-0.3044786
-4.299464	gốm	-0.3309958
-4.651646	gồ	-0.6020503
-3.891978	gồm	-0.286715
-4.776585	gồng	-0.2996038
-4.776585	gổ	-0.3002835
-3.838733	gỗ	-0.3166708
-4.554736	gội	-0.2923229
-4.952676	gộp	-0.300121
-4.776585	gớm	-0.2999559
-4.952676	gờm	-0.2992927
-4.554736	gởi	-0.2940709
-4.174525	gỡ	-0.2546187
-4.212314	gợi	-0.5421095
-4.776585	gợn	-0.3007587
-4.952676	gợt	-0.3007151
-4.952676	gụ	-0.3007223
-4.475555	gục	-0.2943194
-3.572465	gửi	-0.3784473
-4.408608	h	-0.569888
-4.408608	ha	-0.3075722
-2.440125	hai	-0.4615263
-4.554736	ham	-0.3672473
-4.776585	han	-0.2985774
-4.174525	hang	-0.2566054
-4.776585	hao	-0.300463
-2.819137	hay	-0.2580082
-4.952676	he	-0.3009016
-4.776585	hem	-0.2697385
-4.554736	hen	-0.3009912
-4.077615	heo	-0.3235818
-3.855766	hi	-0.7301672
-4.952676	hia	-0.3008895
-4.350616	hiu	-0.3029468
-4.408608	hiên	-0.3915834
-4.952676	hiêng	-0.2965148
-3.776585	hiếm	-0.4610071
-4.023257	hiến	-0.356066
-4.475555	hiếp	-0.3946538
-3.974953	hiếu	-0.3790788
-4.049586	hiền	-0.3548599
-3.709638	hiểm	-0.3161526
-4.408608	hiển	-0.3958623
-3.236673	hiểu	-0.3799145
-2.637756	hiện	-0.3736419
-3.838733	hiệp	-0.3833777
-3.212314	hiệu	-0.4267054
-4.139763	ho	-0.3327732
-3.136435	hoa	-0.3508454
-4.408608	hoan	-0.2632045
-3.791308	hoang	-0.4415539
-4.776585	hoay	-0.3007514
-4.212314	hoi	-0.3836367
-4.776585	hom	-0.477114
-4.952676	hoà	-0.2698607
-3.822343	hoài	-0.3234617
-3.18552	hoàn	-0.801255
-3.490278	hoàng	-0.3286223
-4.299464	hoành	-0.4710889
-4.077615	hoá	-0.3069909
-4.776585	hoác	-0.445952
-4.651646	hoãn	-0.3656089
-4.776585	hoét	-0.4729876
-4.776585	hoạ	-0.2981218
-3.56351	hoạch	-0.2817107
-4.212314	hoại	-0.2854606
-4.952676	hoạn	-0.2988403
-4.952676	hoạnh	-0.3010251
-3.289918	hoạt	-0.7161576
-4.952676	hoải	-0.2698607
-3.998434	hoảng	-0.3520628
-4.952676	hoắc	-0.2991225
-4.952676	hoắt	-0.3009888
-4.952676	hoẳn	-0.3005818
-3.153336	hoặc	-0.2557813
-4.776585	hu	-0.2698529
-4.952676	hun	-0.3010203
-4.174525	hung	-0.4503853
-3.722227	huy	-0.3263822
-4.107578	huynh	-0.3066402
-4.475555	huyên	-0.3208416
-3.855766	huyết	-0.3740565
-4.350616	huyền	-0.3486047
-4.952676	huyễn	-0.2698607
-3.762344	huyện	-0.2896263
-4.651646	huyệt	-0.2967692
-4.776585	huân	-0.4769566
-4.952676	huê	-0.300904
-4.408608	huýt	-0.4760739
-4.952676	huơ	-0.3009307
-4.350616	huấn	-0.6528952
-4.651646	huế	-0.5708908
-4.952676	huếch	-0.3009307
-4.952676	huề	-0.3008847
-4.299464	huệ	-0.2976461
-3.974953	huống	-0.3389666
-4.299464	huỳnh	-0.3250074
-4.651646	huỷ	-0.2684301
-4.077615	hy	-0.7523773
-3.253706	hà	-0.5470653
-3.791308	hài	-0.4841169
-3.998434	hàm	-0.3428582
-3.911283	hàn	-0.480979
-2.77514	hàng	-0.372685
-2.998434	hành	-0.426119
-3.838733	hào	-0.335298
-4.952676	hàu	-0.2995261
-4.554736	há	-0.366101
-4.212314	hái	-0.3917815
-4.952676	hám	-0.2698607
-4.475555	hán	-0.2687589
-4.952676	háng	-0.2698607
-4.475555	háo	-0.7781367
-3.620238	hát	-0.2915613
-4.475555	hâm	-0.5439203
-4.554736	hân	-0.3667352
-4.253706	hãi	-0.2867213
-4.776585	hãn	-0.2657201
-3.931487	hãng	-0.3374477
-4.651646	hãnh	-0.3978092
-4.952676	hão	-0.3010106
-3.212314	hãy	-0.3590399
-3.931487	hè	-0.2824012
-4.554736	hèn	-0.3659721
-4.952676	hé	-0.2992465
-4.554736	héo	-0.2980267
-4.554736	hét	-0.3666964
-4.776585	hên	-0.2698478
-4.952676	hênh	-0.3003563
-4.952676	hì	-0.3010203
-2.873495	hình	-0.3922218
-4.952676	hí	-0.3010227
-4.408608	hít	-0.390284
-4.408608	hò	-0.3643471
-3.447526	hòa	-0.3175064
-4.107578	hòn	-0.2830336
-3.21628	hóa	-0.3395655
-4.651646	hóc	-0.6020213
-4.952676	hói	-0.2998734
-4.952676	hóm	-0.3010251
-4.776585	hóng	-0.4770898
-4.776585	hót	-0.2697281
-4.408608	hô	-0.3401429
-4.049586	hôi	-0.3336471
-3.299464	hôm	-0.7791392
-3.791308	hôn	-0.3458107
-4.299464	hông	-0.2943496
-4.952676	hùa	-0.300121
-4.776585	hùn	-0.2983874
-3.735192	hùng	-0.3649119
-4.651646	hú	-0.298648
-4.776585	húc	-0.2698425
-4.776585	húi	-0.3008943
-4.475555	húng	-0.3515258
-4.952676	húp	-0.3010154
-3.521312	hút	-0.3894959
-4.952676	húy	-0.3010203
-4.651646	hăm	-0.396713
-4.776585	hăng	-0.3008919
-4.952676	hĩnh	-0.2698607
-4.952676	hũ	-0.3009016
-4.952676	hũm	-0.2999778
-3.52943	hơi	-0.3181298
-2.693799	hơn	-0.4625793
-4.023257	hư	-0.483505
-3.931487	hưng	-0.3636031
-4.408608	hưu	-0.2628054
-3.513344	hương	-0.2950726
-4.952676	hươu	-0.3009016
-4.475555	hước	-0.3118984
-4.952676	hướm	-0.2968963
-3.361612	hướng	-0.3438147
-4.554736	hường	-0.2674266
-3.434162	hưởng	-0.4061119
-4.952676	hượm	-0.2987868
-3.572465	hạ	-0.3345913
-4.776585	hạc	-0.3007175
-4.408608	hạch	-0.393344
-3.610254	hại	-0.4075391
-4.776585	hạm	-0.2696031
-3.454365	hạn	-0.3807858
-3.952676	hạng	-0.4276655
-3.461314	hạnh	-0.6437925
-4.776585	hạo	-0.2998515
-4.651646	hạp	-0.2643864
-3.855766	hạt	-0.3016388
-4.212314	hả	-0.3916059
-3.581608	hải	-0.3498991
-4.952676	hảm	-0.3000773
-4.174525	hảo	-0.4652085
-4.952676	hấng	-0.2979194
-3.855766	hấp	-0.6626713
-4.651646	hất	-0.3001283
-4.952676	hấu	-0.3009307
-4.253706	hầm	-0.2926464
-3.554736	hầu	-1.236339
-4.776585	hầy	-0.2683022
-4.776585	hẩm	-0.4771019
-4.554736	hẫng	-0.2610009
-4.408608	hận	-0.3638759
-4.952676	hập	-0.2698607
-3.537703	hậu	-0.3910053
-4.554736	hắc	-0.3659939
-3.735192	hắn	-0.3197898
-4.776585	hắng	-0.4770898
-4.651646	hắt	-0.29982
-4.952676	hằn	-0.2998491
-3.709638	hằng	-0.4954954
-3.748556	hẳn	-0.3418861
-4.952676	hẵng	-0.3003708
-4.952676	hặc	-0.300606
-4.952676	hẹ	-0.2698607
-3.762344	hẹn	-0.3361201
-3.998434	hẹp	-0.3540704
-4.408608	hẻm	-0.2886561
-4.776585	hến	-0.3000191
-2.96145	hết	-0.3621831
-3.838733	hề	-0.329798
-4.952676	hể	-0.3010033
-4.554736	hển	-0.3627172
-4.952676	hểnh	-0.300967
-4.475555	hễ	-0.3444354
-3.309224	hệ	-0.448506
-4.651646	hệt	-0.3960277
-4.952676	hỉ	-0.3010227
-4.952676	hỉnh	-0.2989863
-2.72996	họ	-0.3632983
-3.762344	họa	-0.4147762
-2.566177	học	-0.4116077
-4.952676	họe	-0.2698607
-4.350616	họng	-0.338602
-3.822343	họp	-0.3906395
-4.107578	hỏa	-0.2754941
-3.049586	hỏi	-0.2687978
-4.952676	hỏm	-0.3010009
-4.174525	hỏng	-0.3385903
-4.253706	hố	-0.3247748
-4.776585	hốc	-0.300921
-4.174525	hối	-0.40503
-4.475555	hốt	-0.3508414
-3.212314	hồ	-0.4062832
-3.490278	hồi	-0.3433467
-3.685504	hồn	-0.2895439
-3.537703	hồng	-0.2873313
-4.253706	hổ	-0.3238485
-4.651646	hổi	-0.2986602
-4.952676	hổm	-0.3010227
-4.554736	hổn	-0.6989579
-4.350616	hổng	-0.332257
-3.952676	hỗ	-1.300933
-4.651646	hỗn	-0.3662423
-3.378645	hộ	-0.3587245
-4.776585	hộc	-0.2998005
-2.911283	hội	-0.3639954
-4.952676	hộn	-0.3009937
-3.998434	hộp	-0.2716961
-4.554736	hột	-0.3676813
-4.952676	hớ	-0.3010251
-4.952676	hớn	-0.3010154
-4.776585	hớp	-0.4770316
-4.776585	hớt	-0.3004169
-4.554736	hờn	-0.3006787
-4.475555	hở	-0.5103574
-4.651646	hởi	-0.2987478
-4.952676	hợi	-0.2698607
-4.952676	hợm	-0.3010251
-2.94621	hợp	-0.3948294
-4.952676	hụ	-0.3004727
-4.651646	hục	-0.2966151
-4.651646	hụi	-0.3657132
-4.299464	hụt	-0.366028
-4.350616	hủ	-0.3442469
-4.077615	hủy	-0.3729593
-3.974953	hứa	-0.4135415
-4.475555	hức	-0.3453366
-4.049586	hứng	-0.3554451
-4.651646	hừ	-0.2698452
-4.651646	hừng	-0.6020503
-3.685504	hữu	-0.3098464
-4.952676	hự	-0.3008314
-4.651646	hực	-0.2986626
-4.952676	hựu	-0.3008726
-4.651646	i	-0.366763
-3.952676	im	-0.4291556
-4.049586	in	-0.3039973
-4.651646	inh	-0.6020382
-4.776585	k	-0.2696057
-4.952676	ka	-0.3010179
-3.998434	kem	-0.328128
-4.776585	ken	-0.4767918
-4.651646	keo	-0.3972493
-4.952676	kha	-0.3009283
-3.396374	khai	-0.3614384
-4.408608	khan	-0.4759258
-4.554736	khang	-0.4768184
-4.776585	khanh	-0.2983557
-4.253706	khao	-0.4406638
-4.408608	khe	-0.2658278
-4.023257	khen	-0.4776006
-4.952676	kheo	-0.3009646
-2.398793	khi	-0.2248543
-4.651646	khinh	-0.299249
-4.408608	khiêm	-0.6016651
-4.952676	khiên	-0.2968963
-4.952676	khiêng	-0.3010203
-4.776585	khiêu	-0.3009186
-4.350616	khiếm	-0.4388723
-3.240869	khiến	-0.4000896
-4.776585	khiếp	-0.2969427
-4.554736	khiết	-0.3320624
-4.253706	khiếu	-0.3231258
-4.253706	khiển	-0.2625117
-3.911283	kho	-0.2834021
-3.468376	khoa	-0.4952357
-4.651646	khoai	-0.3009355
-4.253706	khoan	-0.323838
-4.776585	khoang	-0.2993608
-4.651646	khoanh	-0.3003199
-4.299464	khoe	-0.2960129
-4.952676	khom	-0.3008314
-4.952676	khoá	-0.3010154
-4.554736	khoác	-0.2973801
-4.139763	khoái	-0.2979338
-3.974953	khoán	-0.2773871
-4.475555	khoát	-0.2621332
-4.952676	khoèo	-0.3007393
-4.952676	khoét	-0.2698607
-4.554736	khoăn	-0.2946684
-4.554736	khoải	-0.441141
-3.806548	khoản	-0.4123356
-3.640922	khoảng	-0.5429877
-4.776585	khoảnh	-0.4770462
-4.776585	khoắt	-0.2690769
-4.408608	khoẻ	-0.3347963
-3.143116	khu	-0.6368459
-4.952676	khua	-0.2977072
-4.554736	khum	-0.3347552
-4.023257	khung	-0.3136566
-4.952676	khuy	-0.3010058
-4.212314	khuya	-0.3447691
-4.554736	khuynh	-0.4762875
-3.998434	khuyên	-0.2876704
-3.974953	khuyến	-0.7399508
-4.299464	khuyết	-0.5326128
-4.776585	khuân	-0.4771019
-4.776585	khuâng	-0.298553
-4.952676	khuây	-0.3010251
-3.952676	khuôn	-0.6176527
-4.475555	khuất	-0.3203415
-4.952676	khuấy	-0.3002229
-4.174525	khuẩn	-0.2600359
-4.952676	khuỳnh	-0.2996378
-4.952676	khuỷu	-0.3004266
-4.952676	khà	-0.3007805
-4.952676	khàn	-0.3009985
-4.554736	khàng	-0.4770437
-3.334628	khá	-0.350703
-2.809661	khác	-0.4230967
-3.038862	khách	-0.3620894
-4.776585	khái	-0.4770438
-3.640922	khám	-0.4624873
-3.873495	khán	-0.9372536
-4.049586	kháng	-0.5968224
-4.212314	khánh	-0.3785911
-4.952676	kháo	-0.3005212
-4.952676	kháp	-0.3009864
-4.023257	khát	-0.3600324
-4.952676	khâm	-0.3007975
-4.174525	khâu	-0.3402784
-4.952676	khè	-0.3008919
-4.952676	khèn	-0.2698607
-4.952676	khèo	-0.2995261
-4.952676	khén	-0.2698607
-4.299464	khéo	-0.4761807
-4.651646	khép	-0.3963024
-4.776585	khét	-0.4767361
-4.776585	khê	-0.2657201
-4.952676	khênh	-0.2995261
-3.356079	khí	-0.3151408
-4.554736	khía	-0.6988126
-3.911283	khích	-0.3630633
-4.952676	khít	-0.2698607
-4.952676	khíu	-0.3008507
-4.952676	khò	-0.3010251
-3.044191	khó	-0.5137064
-4.077615	khóa	-0.3716314
-3.610254	khóc	-0.316045
-4.554736	khóe	-0.3363521
-4.107578	khói	-0.3008107
-3.873495	khô	-0.3083049
-4.475555	khôi	-0.2958243
-4.174525	khôn	-0.367038
-1.989124	không	-0.4901527
-4.952676	khù	-0.3010203
-4.776585	khú	-0.2969403
-3.952676	khúc	-0.2627426
-4.952676	khúm	-0.3008047
-4.952676	khăm	-0.3010203
-3.497831	khăn	-0.3923464
-4.952676	khơ	-0.3010251
-4.408608	khơi	-0.3359382
-4.776585	khư	-0.2999195
-4.952676	khươm	-0.2999487
-4.776585	khươn	-0.2965466
-4.776585	khương	-0.2980803
-4.952676	khước	-0.300036
-4.952676	khạc	-0.3010082
-4.952676	khạng	-0.3008483
-3.454365	khả	-0.9916685
-4.408608	khải	-0.2966078
-3.735192	khảo	-0.4146899
-4.952676	khảy	-0.2967031
-4.952676	khấn	-0.3010203
-4.952676	khấp	-0.3009791
-4.651646	khất	-0.2984118
-3.911283	khấu	-0.3578578
-4.253706	khẩn	-0.5110932
-3.461314	khẩu	-0.4175941
-4.952676	khật	-0.3010251
-3.762344	khắc	-0.3662072
-4.952676	khắm	-0.300829
-4.952676	khắng	-0.3010251
-3.748556	khắp	-0.4741232
-4.776585	khắt	-0.4771043
-4.651646	khẳm	-0.3975403
-3.998434	khẳng	-1.254635
-4.952676	khẻ	-0.2999268
-4.350616	khẽ	-0.4390905
-4.776585	khế	-0.3005478
-4.952676	khề	-0.3010251
-4.952676	khều	-0.3009234
-4.776585	khệ	-0.477114
-4.952676	khệnh	-0.3010251
-4.776585	khỉ	-0.445952
-4.952676	khịt	-0.300967
-4.952676	khỏa	-0.2698607
-3.482854	khỏe	-0.482016
-3.497831	khỏi	-0.2813421
-4.952676	khố	-0.2698607
-4.651646	khốc	-0.6020092
-3.806548	khối	-0.2768189
-4.408608	khốn	-0.3618388
-4.776585	khống	-0.4768476
-3.640922	khổ	-0.3133233
-4.408608	khổng	-0.8450786
-4.952676	khớ	-0.2968963
-3.911283	khớp	-0.3995557
-4.651646	khờ	-0.2645313
-3.931487	khởi	-0.4156181
-4.952676	khụ	-0.2698607
-3.952676	khủng	-0.5378754
-4.077615	khứ	-0.3572363
-4.952676	khứu	-0.3008726
-4.952676	khừ	-0.2698607
-4.776585	khựng	-0.4755153
-4.554736	ki	-0.2986017
-3.513344	kia	-0.396065
-3.56351	kim	-0.3048734
-3.044191	kinh	-0.7268757
-4.651646	kiêm	-0.3001913
-3.806548	kiên	-0.478884
-4.952676	kiêng	-0.3010251
-4.651646	kiêu	-0.3007756
-3.454365	kiếm	-0.3320338
-3.2284	kiến	-0.395853
-4.212314	kiếp	-0.5089551
-4.299464	kiềm	-0.6955837
-4.776585	kiền	-0.3008847
-4.776585	kiềng	-0.4769953
-4.077615	kiều	-0.2575246
-3.319208	kiểm	-0.9338753
-4.651646	kiểng	-0.2956379
-3.572465	kiểu	-0.3471293
-4.107578	kiệm	-0.2632833
-3.440793	kiện	-0.2940597
-4.408608	kiệt	-0.3403887
-4.776585	kiệu	-0.4716532
-4.776585	ko	-0.4768403
-4.952676	ky	-0.3010154
-4.651646	kè	-0.3003708
-4.023257	kèm	-0.4396733
-4.651646	kèn	-0.2696135
-4.776585	kèo	-0.4770559
-3.620238	kém	-0.3838243
-4.776585	kén	-0.3000627
-3.497831	kéo	-0.3889656
-4.776585	kép	-0.2965662
-4.952676	két	-0.2698607
-3.838733	kê	-0.2891271
-4.077615	kênh	-0.3141966
-3.838733	kêu	-0.4187783
-4.651646	kì	-0.2985993
-4.554736	kìa	-0.4449675
-4.651646	kìm	-0.3976372
-4.952676	kình	-0.2967031
-4.554736	kí	-0.2967325
-3.855766	kích	-0.4962583
-4.139763	kín	-0.3010745
-3.722227	kính	-0.3016726
-4.952676	kíp	-0.2698607
-4.776585	kít	-0.3003708
-3.384475	ký	-0.3330496
-4.952676	kĩ	-0.3010082
-4.952676	kẹn	-0.2698607
-4.350616	kẹo	-0.3034975
-4.651646	kẹp	-0.2998419
-4.299464	kẹt	-0.3301248
-3.620238	kẻ	-0.3092736
-4.651646	kẻng	-0.2684797
-4.475555	kẻo	-0.3475743
-4.408608	kẽ	-0.2966396
-4.475555	kẽm	-0.5374829
-4.952676	kẽo	-0.3010082
-3.390383	kế	-0.4384034
-4.952676	kếch	-0.3010227
-3.057807	kết	-0.6933893
-4.776585	kề	-0.3008144
-4.776585	kền	-0.3003587
-4.776585	kềnh	-0.2953682
-3.299464	kể	-0.4065651
-4.253706	kệ	-0.2855681
-4.952676	kệnh	-0.3001622
-4.952676	kỉ	-0.3009525
-4.952676	kỉnh	-0.3008071
-4.952676	kị	-0.298665
-3.748556	kịch	-0.4481403
-3.697404	kịp	-0.280402
-4.776585	kịt	-0.2697228
-3.26248	kỳ	-0.2971341
-4.651646	kỵ	-0.2967643
-3.52943	kỷ	-0.6042589
-3.372893	kỹ	-0.6510696
-3.822343	la	-0.3620893
-3.735192	lai	-0.3557149
-4.350616	lam	-0.2996718
-3.521312	lan	-0.2875816
-3.998434	lang	-0.3678817
-4.651646	lanh	-0.3005842
-3.427632	lao	-0.6383747
-4.299464	lau	-0.3243121
-4.776585	lay	-0.3010179
-4.408608	le	-0.4442368
-4.952676	lem	-0.299735
-4.253706	len	-0.4154239
-4.107578	leo	-0.3512624
-4.475555	li	-0.4241926
-4.776585	lia	-0.3010203
-4.651646	lim	-0.366763
-4.952676	lin	-0.3005333
-3.838733	linh	-0.2797903
-4.952676	liu	-0.3003563
-4.776585	liêm	-0.299871
-3.181824	liên	-0.7138043
-4.651646	liêng	-0.2612345
-4.253706	liêu	-0.3212069
-4.776585	liếc	-0.4767458
-4.952676	liếm	-0.3007466
-4.952676	liến	-0.2993802
-4.952676	liếng	-0.3003005
-4.776585	liềm	-0.445952
-3.822343	liền	-0.3783933
-4.253706	liều	-0.3961006
-4.776585	liễu	-0.2682343
-4.952676	liệng	-0.300036
-3.931487	liệt	-0.4020651
-3.434162	liệu	-0.2381891
-3.309224	lo	-0.4805618
-4.408608	loa	-0.3630554
-4.212314	loan	-0.3889244
-4.952676	loanh	-0.3008677
-4.776585	loay	-0.477114
-4.776585	loi	-0.2967398
-4.952676	lom	-0.3010251
-3.581608	long	-0.3446309
-3.776585	loài	-0.4696113
-4.952676	loàn	-0.2698607
-4.952676	loàng	-0.3010251
-4.651646	loáng	-0.3667369
-4.776585	loãng	-0.2968718
-4.952676	loé	-0.3001622
-4.952676	loét	-0.3008386
-3.160285	loại	-0.3340579
-3.931487	loạn	-0.2837778
-4.952676	loạng	-0.3010251
-4.049586	loạt	-0.2998736
-4.776585	loảng	-0.477114
-4.952676	loắt	-0.3010251
-4.952676	loằng	-0.3010227
-4.776585	lu	-0.299633
-4.952676	lua	-0.300795
-4.408608	lui	-0.3033828
-4.253706	lung	-0.5117089
-4.475555	luyến	-0.3517682
-3.776585	luyện	-0.3122672
-4.408608	luân	-0.2691839
-3.139763	luôn	-0.3354838
-4.776585	luẩn	-0.4770995
-3.521312	luận	-0.3599822
-3.294665	luật	-0.3803507
-4.952676	luống	-0.2698607
-4.952676	luồn	-0.3003442
-4.651646	luồng	-0.2994896
-4.952676	luỗng	-0.3000409
-4.475555	luộc	-0.3177176
-3.855766	ly	-0.3261223
-1.985362	là	-0.2336349
-4.952676	lài	-0.2955619
-2.31669	làm	-0.3313091
-3.873495	làn	-0.5111831
-3.497831	làng	-0.3085857
-3.709638	lành	-0.4346451
-4.408608	lào	-0.3649928
-4.776585	làu	-0.2698529
-3.461314	lá	-0.3171509
-4.776585	lác	-0.3006327
-4.350616	lách	-0.3754513
-4.023257	lái	-0.4072172
-4.475555	láng	-0.2681821
-4.408608	lánh	-0.3053441
-4.651646	láo	-0.3965065
-4.952676	láp	-0.2996791
-4.212314	lát	-0.318553
-4.952676	láu	-0.3010251
-4.952676	láy	-0.2698607
-3.709638	lâm	-0.2713685
-4.408608	lân	-0.3421247
-4.776585	lâng	-0.301013
-3.384475	lâu	-0.4341548
-4.212314	lây	-0.4748463
-4.952676	lã	-0.3010251
-3.974953	lãi	-0.5158399
-3.952676	lãm	-0.3204122
-4.651646	lãn	-0.2981193
-3.974953	lãng	-0.6310731
-3.838733	lãnh	-0.5029914
-3.998434	lão	-0.3430946
-4.776585	lè	-0.477114
-4.776585	lèo	-0.445952
-4.952676	lé	-0.2981949
-4.952676	léc	-0.2698607
-4.952676	lém	-0.3010203
-4.408608	lén	-0.3099872
-4.952676	léng	-0.3010251
-4.554736	léo	-0.2970332
-4.776585	lép	-0.2965392
-4.651646	lét	-0.2674057
-3.735192	lê	-0.3317436
-2.699823	lên	-0.312424
-4.776585	lênh	-0.3010106
-4.651646	lêu	-0.3979279
-4.299464	lì	-0.3597215
-4.776585	lìa	-0.2693141
-4.952676	lìm	-0.2698607
-4.952676	lình	-0.301013
-4.651646	lí	-0.3971523
-4.049586	lính	-0.3368158
-4.299464	líp	-0.3783271
-4.952676	lít	-0.3009864
-4.554736	líu	-0.476879
-4.049586	lò	-0.2986344
-4.952676	lòa	-0.2698607
-4.651646	lòi	-0.2991687
-4.952676	lòm	-0.3008144
-3.170921	lòng	-0.3273037
-4.475555	lóc	-0.2697879
-4.952676	lóe	-0.3001622
-4.776585	lóm	-0.29673
-4.776585	lóng	-0.4771043
-4.408608	lót	-0.2674267
-4.107578	lô	-0.2798354
-4.212314	lôi	-0.3490891
-4.952676	lôm	-0.3010251
-3.891978	lông	-0.3226316
-4.952676	lõi	-0.2698607
-4.952676	lõm	-0.299035
-4.776585	lõng	-0.2698556
-4.554736	lù	-0.3360915
-4.651646	lùa	-0.2979804
-4.350616	lùi	-0.3308363
-4.554736	lùm	-0.4767966
-4.253706	lùng	-0.325183
-4.952676	lú	-0.3009961
-3.931487	lúa	-0.3061483
-2.95051	lúc	-0.3921717
-4.952676	lúi	-0.3010227
-4.952676	lúm	-0.300383
-4.776585	lún	-0.3007587
-4.475555	lúng	-0.7781343
-2.854033	lý	-0.3172098
-3.245106	lăm	-1.291493
-4.174525	lăn	-0.3398886
-4.139763	lăng	-0.3658115
-3.822343	lĩnh	-0.6935027
-3.791308	lũ	-0.3394646
-4.952676	lũi	-0.3009113
-4.952676	lũm	-0.3010251
-4.952676	lũn	-0.3010227
-4.554736	lũng	-0.2988914
-4.776585	lũy	-0.2978828
-3.952676	lơ	-0.4271523
-4.952676	lơi	-0.3010106
-4.952676	lơn	-0.3008992
-4.475555	lư	-0.540611
-3.505518	lưng	-0.2900707
-3.490278	lưu	-0.4110002
-4.776585	lươm	-0.477114
-4.776585	lươn	-0.2698529
-3.537703	lương	-0.3348731
-3.931487	lưới	-0.2804888
-4.952676	lướng	-0.3009985
-4.475555	lướt	-0.3509312
-4.475555	lười	-0.4252465
-4.408608	lường	-0.4381317
-4.299464	lưỡi	-0.3259516
-4.299464	lưỡng	-0.2629322
-4.139763	lược	-0.2974479
-4.475555	lượm	-0.2977145
-4.350616	lượn	-0.34694
-3.156796	lượng	-0.2972431
-4.023257	lượt	-0.3395696
-3.590948	lạ	-0.3398635
-3.640922	lạc	-0.33882
-4.475555	lạch	-0.4248995
-2.432848	lại	-0.2805969
-4.253706	lạm	-0.7393032
-4.952676	lạn	-0.2698607
-4.952676	lạng	-0.3008701
-3.620238	lạnh	-0.3452693
-4.776585	lạo	-0.3000943
-4.776585	lạp	-0.2973264
-4.212314	lạt	-0.2829898
-4.408608	lạy	-0.3973051
-4.952676	lả	-0.3009767
-4.776585	lải	-0.477114
-4.952676	lảm	-0.3010203
-4.952676	lảng	-0.3010251
-4.952676	lảnh	-0.301013
-4.952676	lảy	-0.3010009
-4.651646	lấm	-0.3978916
-4.408608	lấn	-0.3109203
-4.174525	lấp	-0.4097626
-4.776585	lất	-0.2698503
-3.189248	lấy	-0.3687361
-3.891978	lầm	-0.3636743
-2.974953	lần	-0.3696131
-4.475555	lầu	-0.2667433
-4.776585	lầy	-0.2999559
-4.554736	lẩm	-0.4770873
-4.651646	lẩn	-0.3009767
-4.554736	lẩu	-0.6989579
-3.762344	lẫn	-0.3515719
-4.952676	lẫy	-0.2988403
-4.350616	lận	-0.3466942
-3.304316	lập	-0.4126369
-4.049586	lật	-0.4206282
-4.174525	lậu	-0.3324097
-4.077615	lắc	-0.5197827
-3.289918	lắm	-0.4025632
-3.735192	lắng	-0.4429539
-4.408608	lắp	-0.3107302
-4.776585	lắt	-0.2976291
-4.475555	lằn	-0.4196292
-4.776585	lằng	-0.4771116
-4.952676	lẳm	-0.3009695
-4.952676	lẳn	-0.3005236
-4.554736	lẳng	-0.3634567
-4.776585	lặm	-0.4729876
-4.212314	lặn	-0.3174527
-3.709638	lặng	-0.3905199
-4.776585	lặp	-0.268135
-4.776585	lặt	-0.3009525
-4.952676	lẹ	-0.2698607
-4.952676	lẹm	-0.2698607
-4.077615	lẻ	-0.2722093
-4.952676	lẻn	-0.2994532
-4.952676	lẻng	-0.3010203
-3.289918	lẽ	-0.3051712
-4.952676	lẽn	-0.2698607
-4.554736	lẽo	-0.3344415
-4.952676	lết	-0.2994532
-4.952676	lếu	-0.3001307
-4.554736	lề	-0.4451109
-4.651646	lềnh	-0.3979279
-4.651646	lều	-0.2981559
-4.952676	lể	-0.299035
-3.600494	lễ	-0.3667166
-3.620238	lệ	-0.297173
-4.174525	lệch	-0.281898
-3.998434	lệnh	-0.376602
-4.952676	lỉm	-0.2967031
-4.651646	lỉnh	-0.2992149
-4.952676	lịa	-0.2981949
-3.319208	lịch	-0.36069
-4.952676	lịm	-0.3007151
-4.776585	lịnh	-0.2679443
-4.554736	lọ	-0.2999195
-4.350616	lọc	-0.3351621
-4.651646	lọng	-0.3974603
-4.350616	lọt	-0.4900569
-4.554736	lỏi	-0.2963116
-4.952676	lỏn	-0.2698607
-4.350616	lỏng	-0.256211
-4.952676	lố	-0.3010203
-4.475555	lốc	-0.2977291
-3.822343	lối	-0.4330882
-4.776585	lốm	-0.4771116
-4.776585	lốp	-0.299509
-4.952676	lốt	-0.3010009
-4.350616	lồ	-0.4027339
-4.952676	lồi	-0.3006981
-4.776585	lồm	-0.477114
-4.174525	lồng	-0.4516434
-4.776585	lổm	-0.3010154
-4.776585	lổng	-0.3001064
-3.891978	lỗ	-0.3363959
-3.630457	lỗi	-0.3404799
-3.735192	lộ	-0.2967788
-4.107578	lộc	-0.3178903
-4.299464	lội	-0.2971543
-4.212314	lộn	-0.4722315
-4.776585	lộng	-0.3001744
-4.952676	lộp	-0.3010251
-4.174525	lột	-0.4208135
-2.94621	lớn	-0.3843387
-3.468376	lớp	-0.2888277
-4.952676	lớt	-0.3010227
-4.651646	lờ	-0.2988354
-3.071862	lời	-0.30908
-4.952676	lờm	-0.3010227
-4.952676	lờn	-0.3006375
-4.049586	lở	-0.3532874
-4.776585	lởi	-0.4769178
-4.952676	lởn	-0.3010251
-4.350616	lỡ	-0.2898329
-4.952676	lỡm	-0.3007248
-3.414857	lợi	-0.4106451
-4.776585	lợm	-0.296845
-4.408608	lợn	-0.2613486
-4.554736	lợp	-0.2689544
-4.952676	lụ	-0.3010251
-4.212314	lụa	-0.27859
-3.998434	lục	-0.3432354
-4.952676	lụng	-0.2698607
-4.952676	lụp	-0.3010251
-4.651646	lụt	-0.3932853
-4.952676	lủ	-0.3010154
-4.776585	lủi	-0.4771092
-4.952676	lủm	-0.3010251
-4.651646	lủng	-0.3978722
-4.253706	lứa	-0.3945366
-4.952676	lức	-0.2993195
-4.952676	lứt	-0.3010009
-4.776585	lừ	-0.269262
-4.049586	lừa	-0.3849401
-4.776585	lừng	-0.2695276
-4.952676	lử	-0.2698607
-3.762344	lửa	-0.3462778
-4.475555	lửng	-0.2944792
-4.554736	lữ	-0.4766633
-4.776585	lữa	-0.2996184
-4.952676	lững	-0.3010251
-3.776585	lựa	-0.6243252
-3.204488	lực	-0.3992619
-4.554736	lựu	-0.3363286
-4.952676	lỵ	-0.3009476
-4.952676	m	-0.2698607
-3.838733	ma	-0.4767354
-3.572465	mai	-0.2970552
-4.651646	man	-0.3006254
-3.120167	mang	-0.4036606
-4.299464	manh	-0.2658356
-4.139763	mau	-0.3611962
-3.610254	may	-0.3651366
-4.776585	me	-0.3009791
-4.554736	men	-0.2994289
-4.554736	mi	-0.2649551
-4.952676	min	-0.3009767
-3.149902	minh	-0.3255659
-4.350616	miên	-0.4848523
-4.651646	miêu	-0.3008047
-4.139763	miếng	-0.3092377
-4.651646	miết	-0.2999001
-4.651646	miếu	-0.2985823
-3.630457	miền	-0.6109176
-4.952676	miều	-0.2999268
-4.107578	miễn	-0.492722
-4.475555	miện	-0.3495156
-3.709638	miệng	-0.3303772
-4.475555	miệt	-0.3513609
-4.952676	mo	-0.3007829
-4.952676	mon	-0.3010179
-3.537703	mong	-0.4796753
-4.651646	mu	-0.2961623
-3.09837	mua	-0.3947463
-4.554736	mun	-0.4449753
-4.475555	muôn	-0.3470821
-4.776585	muông	-0.300703
-4.107578	muối	-0.3014261
-2.944076	muốn	-0.2934602
-4.952676	muống	-0.3010203
-4.952676	muốt	-0.300766
-4.952676	muồi	-0.3001501
-4.952676	muỗi	-0.3009985
-4.952676	muỗm	-0.2965148
-4.651646	muỗng	-0.3667656
-4.139763	muộn	-0.2810992
-4.651646	my	-0.2971627
-2.509413	mà	-0.3293882
-4.350616	mài	-0.3007343
-3.911283	màn	-0.5211561
-4.212314	màng	-0.306256
-4.952676	mành	-0.3010106
-4.776585	mào	-0.296823
-3.21628	màu	-0.4624419
-3.662642	mày	-0.3415282
-3.838733	má	-0.3055405
-4.651646	mác	-0.268216
-4.554736	mách	-0.44546
-3.600494	mái	-0.4952593
-4.776585	mán	-0.445952
-4.952676	máng	-0.2991225
-4.952676	mánh	-0.3010179
-4.952676	máo	-0.3007781
-3.873495	mát	-0.300693
-3.537703	máu	-0.3329345
-3.126601	máy	-0.3271013
-4.554736	mâm	-0.3008023
-4.952676	mân	-0.3009259
-4.350616	mâu	-0.9030706
-4.107578	mây	-0.2999403
-3.911283	mã	-0.3601118
-3.640922	mãi	-0.3000822
-3.974953	mãn	-0.3016814
-4.952676	mãng	-0.2971773
-4.952676	mãnh	-0.3009791
-4.554736	mè	-0.3633955
-4.952676	mèn	-0.3004727
-4.299464	mèo	-0.3216358
-4.776585	mé	-0.3009598
-4.776585	mém	-0.3008241
-4.952676	mén	-0.2971773
-4.408608	méo	-0.3947782
-4.350616	mép	-0.3326693
-4.350616	mét	-0.3473868
-3.620238	mê	-0.3260051
-4.554736	mênh	-0.6989337
-4.350616	mì	-0.3322301
-4.776585	mìn	-0.3004848
-2.50089	mình	-0.4206888
-4.776585	mí	-0.4767288
-4.408608	mía	-0.2932582
-4.776585	míp	-0.445952
-4.651646	mít	-0.5708908
-4.952676	míu	-0.3000288
-4.299464	mò	-0.3793061
-4.651646	mòi	-0.3935691
-4.651646	mòn	-0.2669528
-4.554736	mòng	-0.4747441
-4.776585	mó	-0.2698425
-3.998434	móc	-0.266709
-4.952676	mói	-0.2996378
-4.776585	móm	-0.477114
-3.434162	món	-0.487872
-4.139763	móng	-0.3625986
-4.651646	móp	-0.3009937
-4.651646	mót	-0.3006206
-3.855766	mô	-0.3680606
-3.56351	môi	-0.6101996
-3.505518	môn	-0.3146363
-4.077615	mông	-0.2580756
-4.952676	mõ	-0.3007587
-4.776585	mõm	-0.3007926
-4.023257	mù	-0.3197592
-3.372893	mùa	-0.4325686
-3.521312	mùi	-0.3593489
-4.952676	mùn	-0.2698607
-4.952676	mùng	-0.3009985
-4.952676	mú	-0.3008919
-4.139763	múa	-0.2804892
-4.776585	múi	-0.2690378
-4.952676	mún	-0.2698607
-4.776585	múp	-0.477114
-4.776585	mút	-0.300606
-4.776585	măm	-0.3003539
-4.952676	măn	-0.3010203
-4.651646	măng	-0.2688501
-4.776585	mĩm	-0.2677169
-4.299464	mũ	-0.3652026
-3.838733	mũi	-0.3478499
-4.776585	mũm	-0.477114
-3.56351	mơ	-0.3809092
-4.651646	mơn	-0.3010106
-3.537703	mưa	-0.3384135
-4.253706	mưu	-0.5999992
-2.304805	mươi	-1.544314
-4.952676	mương	-0.300967
-4.651646	mướn	-0.3667474
-4.952676	mướp	-0.299684
-4.776585	mướt	-0.300269
-3.092338	mười	-0.7429785
-4.475555	mường	-0.3516252
-4.475555	mượn	-0.2955374
-4.554736	mượt	-0.4445057
-4.253706	mạ	-0.4099503
-4.212314	mạc	-0.3437789
-3.855766	mạch	-0.3768651
-4.077615	mại	-0.3461942
-4.174525	mạn	-0.3666262
-3.610254	mạng	-0.3374267
-3.266935	mạnh	-0.3818692
-4.651646	mạo	-0.2696838
-4.776585	mạp	-0.2683648
-4.554736	mạt	-0.269702
-4.952676	mạy	-0.2698607
-4.776585	mả	-0.2955668
-4.408608	mải	-0.3395681
-4.350616	mảng	-0.2978194
-3.838733	mảnh	-0.3509619
-4.952676	mấn	-0.3008919
-4.952676	mấp	-0.3007054
-3.153336	mất	-0.3432117
-4.554736	mấu	-0.6989434
-3.153336	mấy	-0.4754888
-4.408608	mầm	-0.3659374
-4.776585	mần	-0.2999414
-4.776585	mầu	-0.298631
-4.554736	mẩn	-0.2961525
-4.651646	mẩu	-0.3973173
-4.776585	mẩy	-0.297341
-4.554736	mẫn	-0.2990058
-3.891978	mẫu	-0.2874303
-4.776585	mận	-0.2695224
-4.253706	mập	-0.2886183
-3.911283	mật	-0.3197511
-4.651646	mậu	-0.2959321
-3.461314	mắc	-0.4954735
-4.408608	mắm	-0.3106104
-3.952676	mắn	-0.2835582
-4.475555	mắng	-0.3487474
-3.044191	mắt	-0.3172298
-4.952676	mằn	-0.3010009
-4.651646	mẳn	-0.3666979
-3.590948	mặc	-0.4674117
-4.174525	mặn	-0.3737784
-2.93356	mặt	-0.3206244
-2.825571	mẹ	-0.3558434
-4.776585	mẹo	-0.2965906
-4.952676	mẹt	-0.3010106
-4.475555	mẻ	-0.3167518
-4.212314	mẽ	-0.4388437
-4.952676	mếch	-0.3007369
-3.911283	mến	-0.3016714
-4.776585	mếu	-0.3010033
-4.776585	mề	-0.4771092
-3.709638	mềm	-0.3876361
-4.952676	mền	-0.2698607
-4.776585	mệ	-0.299854
-4.299464	mệnh	-0.328884
-3.952676	mệt	-0.5834349
-4.554736	mỉ	-0.3322912
-4.952676	mỉa	-0.3009137
-4.212314	mỉm	-1.041194
-4.651646	mị	-0.2674214
-4.776585	mịn	-0.2698321
-4.554736	mịt	-0.4449857
-4.776585	mọ	-0.3007248
-4.077615	mọc	-0.4906415
-3.044191	mọi	-0.5948591
-4.952676	mọn	-0.2698607
-4.408608	mọng	-0.3317148
-4.952676	mọt	-0.3009743
-4.475555	mỏ	-0.3206307
-3.952676	mỏi	-0.3667435
-4.952676	mỏm	-0.3007975
-4.299464	mỏng	-0.2616164
-4.952676	mố	-0.300543
-4.408608	mốc	-0.3053178
-3.651646	mối	-0.4777047
-3.26248	mốt	-1.132397
-4.023257	mồ	-0.6231185
-4.475555	mồi	-0.2630644
-4.554736	mồm	-0.4441793
-4.651646	mồng	-0.2960496
-4.139763	mổ	-0.3333808
-4.776585	mỗ	-0.2971578
-3.052309	mỗi	-0.6045494
-3.974953	mộ	-0.2794902
-4.212314	mộc	-0.2852884
-3.998434	mộng	-0.3232417
-2.003774	một	-0.4593773
-4.776585	mớ	-0.2988135
-2.684332	mới	-0.3360715
-4.776585	mớp	-0.445952
-3.952676	mờ	-0.3805335
-3.572465	mời	-0.4425937
-3.339892	mở	-0.4328789
-4.952676	mởn	-0.2991225
-4.107578	mỡ	-0.322468
-4.952676	mợ	-0.2999487
-4.350616	mụ	-0.3323131
-3.378645	mục	-0.5193656
-4.212314	mụn	-0.3119352
-4.952676	mụp	-0.3010179
-4.554736	mủ	-0.3361802
-4.952676	mủi	-0.3007369
-4.952676	mủn	-0.2981949
-3.402448	mức	-0.3215153
-4.475555	mứt	-0.3160102
-3.855766	mừng	-0.3025204
-4.475555	mửa	-0.3200966
-3.998434	mực	-0.3259173
-3.200628	mỹ	-0.3549887
-4.651646	na	-0.2698373
-4.554736	nai	-0.3267325
-3.033598	nam	-0.3273277
-4.554736	nan	-0.2692568
-4.299464	nang	-0.2932976
-4.776585	nanh	-0.2697124
-4.776585	nao	-0.2969183
-2.869891	nay	-0.3699221
-4.952676	nem	-0.3008943
-4.776585	neo	-0.3009259
-3.891978	nga	-0.3066235
-4.776585	ngai	-0.4769057
-4.952676	ngan	-0.3009937
-3.891978	ngang	-0.3065276
-4.776585	ngao	-0.2698425
-3.09837	ngay	-0.4600009
-3.052309	nghe	-0.3385677
-3.855766	nghi	-0.3688396
-3.697404	nghiêm	-0.502696
-3.709638	nghiên	-1.543855
-4.139763	nghiêng	-0.3271264
-4.776585	nghiến	-0.2988087
-4.554736	nghiền	-0.3674171
-3.554736	nghiệm	-0.3004903
-4.212314	nghiện	-0.3144917
-3.03099	nghiệp	-0.3145208
-4.350616	nghiệt	-0.4318714
-4.952676	nghè	-0.300967
-3.600494	nghèo	-0.3308128
-4.952676	nghé	-0.2698607
-4.952676	nghê	-0.3005721
-4.952676	nghênh	-0.3004921
-4.651646	nghêu	-0.2968841
-4.299464	nghìn	-0.2922685
-3.077615	nghĩ	-0.3816253
-3.280578	nghĩa	-0.5370348
-4.776585	nghĩnh	-0.2931571
-4.554736	nghẹn	-0.4767239
-4.952676	nghẹo	-0.3007587
-4.776585	nghẹt	-0.2662188
-4.952676	nghẻo	-0.298665
-4.776585	nghẽn	-0.4768548
-4.651646	nghếch	-0.5708908
-3.329427	nghề	-0.3745999
-3.275983	nghệ	-0.5094243
-3.546136	nghỉ	-0.3760372
-4.952676	nghỉu	-0.2698607
-3.52943	nghị	-0.3669705
-4.299464	nghịch	-0.3313437
-4.952676	ngoa	-0.3005721
-4.350616	ngoan	-0.3022568
-4.952676	ngoang	-0.3010203
-4.952676	ngoay	-0.3010227
-4.952676	ngoe	-0.299424
-4.952676	ngoi	-0.3001622
-3.673923	ngon	-0.3969027
-3.010668	ngoài	-0.3545651
-4.952676	ngoàm	-0.2991225
-4.952676	ngoác	-0.3009452
-4.952676	ngoách	-0.3000409
-4.253706	ngoái	-0.2588394
-4.952676	ngoáo	-0.3010251
-4.776585	ngoáy	-0.2693583
-4.776585	ngoãn	-0.2696135
-4.776585	ngoèo	-0.2677169
-4.776585	ngoéo	-0.3004872
-3.513344	ngoại	-0.406393
-4.554736	ngoạn	-0.6987883
-4.952676	ngoảnh	-0.3005236
-4.776585	ngoắc	-0.2990593
-4.952676	ngoắt	-0.3010227
-4.776585	ngoằn	-0.477114
-4.776585	ngoằng	-0.3003272
-4.952676	ngoẵng	-0.2999268
-4.651646	ngoặc	-0.2972897
-4.776585	ngoặt	-0.2919917
-4.554736	ngu	-0.3353561
-3.651646	nguy	-0.8428762
-3.21628	nguyên	-0.4422635
-4.776585	nguyền	-0.2968865
-3.434162	nguyễn	-0.3457345
-3.709638	nguyện	-0.3946122
-4.554736	nguyệt	-0.3355961
-4.952676	nguôi	-0.2698607
-4.952676	nguẩy	-0.3008314
-4.776585	nguồi	-0.298962
-3.454365	nguồn	-0.4174841
-4.253706	nguội	-0.3255441
-4.776585	ngà	-0.3009598
-4.174525	ngài	-0.3131108
-4.952676	ngàm	-0.300967
-3.651646	ngàn	-0.4198094
-4.952676	ngàng	-0.3003005
-3.2284	ngành	-0.3700401
-4.174525	ngào	-0.3128622
-2.61422	ngày	-0.3648034
-4.651646	ngách	-0.2966493
-4.408608	ngán	-0.3100237
-4.952676	ngáng	-0.3009404
-4.952676	ngáo	-0.3009888
-4.776585	ngáp	-0.3006157
-4.651646	ngát	-0.6020503
-4.952676	ngáu	-0.2998127
-4.651646	ngáy	-0.365361
-4.651646	ngâm	-0.3005406
-3.600494	ngân	-0.660682
-4.350616	ngây	-0.3333809
-3.685504	ngã	-0.3680593
-4.952676	ngãi	-0.2698607
-4.952676	ngía	-0.3009016
-4.952676	ngò	-0.3010251
-4.776585	ngòi	-0.2966493
-4.299464	ngó	-0.330109
-4.952676	ngóc	-0.3010203
-4.952676	ngóe	-0.3003345
-4.651646	ngói	-0.2694235
-3.974953	ngón	-0.5494044
-4.651646	ngóng	-0.2998103
-4.776585	ngót	-0.2698556
-4.212314	ngô	-0.2638802
-3.651646	ngôi	-0.5930738
-3.891978	ngôn	-0.5655045
-4.952676	ngông	-0.3010154
-4.023257	ngõ	-0.3812182
-4.952676	ngùi	-0.3010082
-4.952676	ngúc	-0.3010227
-4.952676	ngúng	-0.3010251
-4.475555	ngút	-0.4208512
-3.776585	ngăn	-0.4637615
-4.107578	ngũ	-0.2602248
-4.776585	ngơ	-0.2999584
-4.253706	ngơi	-0.4149834
-4.212314	ngư	-0.74624
-4.952676	ngưa	-0.3010106
-4.107578	ngưng	-0.3106688
-4.776585	ngưu	-0.3008871
-4.475555	ngươi	-0.2877407
-4.776585	ngước	-0.3001477
-2.109443	người	-0.3342013
-4.776585	ngưởng	-0.445952
-4.299464	ngưỡng	-0.3356405
-3.735192	ngược	-0.39454
-4.952676	ngượng	-0.3009767
-4.023257	ngạc	-0.5859994
-3.673923	ngại	-0.2820885
-4.776585	ngạn	-0.477051
-4.776585	ngạo	-0.3009307
-4.475555	ngạt	-0.3199557
-4.299464	ngả	-0.2947841
-4.776585	ngải	-0.2992319
-4.952676	ngảnh	-0.3005236
-4.107578	ngất	-0.3207657
-4.952676	ngấu	-0.3010227
-4.952676	ngấy	-0.299035
-4.174525	ngầm	-0.2796016
-4.299464	ngần	-0.3649272
-4.952676	ngầy	-0.3010227
-4.776585	ngẩm	-0.2947004
-4.776585	ngẩn	-0.2978828
-4.952676	ngẩng	-0.3004581
-4.408608	ngẫm	-0.2938913
-4.952676	ngẫu	-0.3005139
-4.299464	ngậm	-0.300332
-3.911283	ngập	-0.3195902
-4.952676	ngậu	-0.3010154
-4.776585	ngậy	-0.2964438
-4.952676	ngắc	-0.3010251
-4.077615	ngắm	-0.3379459
-3.931487	ngắn	-0.3642599
-4.253706	ngắt	-0.4758927
-4.952676	ngẳng	-0.2698607
-4.952676	ngẵng	-0.3004799
-4.776585	ngặt	-0.2994167
-4.554736	ngọ	-0.3641364
-3.662642	ngọc	-0.2863204
-3.838733	ngọn	-0.4862877
-4.776585	ngọng	-0.2993997
-3.855766	ngọt	-0.3881891
-4.554736	ngỏ	-0.2691317
-4.475555	ngốc	-0.3156495
-3.271435	ngồi	-0.3124437
-4.952676	ngồm	-0.3010251
-4.952676	ngồn	-0.3010251
-4.776585	ngồng	-0.2698529
-4.952676	ngổ	-0.3010251
-4.952676	ngổm	-0.2992465
-4.952676	ngỗ	-0.3009501
-4.952676	ngỗng	-0.2698607
-4.139763	ngộ	-0.390789
-4.952676	ngộn	-0.3010179
-4.350616	ngột	-0.301487
-4.952676	ngớ	-0.3010227
-4.952676	ngớn	-0.2698607
-4.776585	ngớt	-0.445952
-3.554736	ngờ	-0.3114496
-4.952676	ngời	-0.3001622
-4.408608	ngỡ	-0.3089344
-4.952676	ngợ	-0.3004048
-4.408608	ngợi	-0.307559
-4.952676	ngợm	-0.3009598
-4.776585	ngợp	-0.268871
-4.651646	ngụ	-0.2962529
-4.952676	ngụa	-0.3010033
-4.952676	ngục	-0.2698607
-4.776585	ngụm	-0.2698113
-4.952676	ngụp	-0.300984
-3.356079	ngủ	-0.3097338
-4.776585	ngủi	-0.3000749
-4.651646	ngủn	-0.6001526
-4.952676	ngứ	-0.298665
-4.350616	ngứa	-0.2993039
-4.952676	ngừ	-0.3007635
-4.077615	ngừa	-0.3354218
-4.139763	ngừng	-0.2655966
-4.651646	ngửi	-0.2998661
-4.952676	ngửng	-0.3001622
-3.791308	ngữ	-0.3480123
-4.554736	ngự	-0.2921894
-4.174525	ngựa	-0.3121389
-4.139763	ngực	-0.2896927
-3.572465	nha	-0.5454415
-4.554736	nhai	-0.3360941
-4.776585	nham	-0.3009476
-4.651646	nhan	-0.2691577
-4.651646	nhang	-0.2917543
-3.384475	nhanh	-0.4160479
-4.651646	nhao	-0.268122
-2.931487	nhau	-0.3878726
-4.952676	nhay	-0.3001622
-4.554736	nhe	-0.3668809
-4.952676	nhem	-0.2698607
-4.952676	nhen	-0.3008774
-4.776585	nheo	-0.2985798
-4.139763	nhi	-0.3624987
-2.925327	nhiên	-0.2742874
-3.581608	nhiêu	-0.3672389
-4.952676	nhiếc	-0.3010179
-4.554736	nhiếp	-0.6985461
-2.420559	nhiều	-0.3584569
-3.748556	nhiễm	-0.3914931
-4.651646	nhiễu	-0.3665418
-3.319208	nhiệm	-0.4542492
-3.776585	nhiệt	-0.5182899
-4.408608	nho	-0.341033
-4.952676	nhoai	-0.3001622
-4.776585	nhoe	-0.4771116
-4.952676	nhoen	-0.3010203
-4.952676	nhom	-0.3000773
-4.952676	nhong	-0.3010251
-4.952676	nhoài	-0.3000409
-4.952676	nhoáng	-0.2698607
-4.651646	nhoét	-0.3921629
-4.776585	nhoẻn	-0.4770365
-3.748556	nhu	-1.021047
-4.475555	nhung	-0.2649893
-4.776585	nhuyễn	-0.445952
-4.952676	nhuần	-0.3010227
-4.077615	nhuận	-0.434247
-4.952676	nhuệ	-0.2968963
-4.776585	nhuốm	-0.3005309
-4.475555	nhuộm	-0.2952504
-2.477005	nhà	-0.3548306
-4.952676	nhài	-0.2971773
-4.776585	nhàm	-0.4770922
-4.776585	nhàn	-0.2990009
-4.139763	nhàng	-0.397428
-4.952676	nhành	-0.3007126
-4.651646	nhào	-0.2692541
-4.776585	nhàu	-0.2698243
-4.952676	nhá	-0.3010251
-4.554736	nhác	-0.2976291
-4.952676	nháng	-0.300703
-4.350616	nhánh	-0.268751
-4.776585	nháo	-0.3010082
-4.253706	nhát	-0.3155673
-4.651646	nháy	-0.3004096
-4.952676	nhâm	-0.3009985
-2.749916	nhân	-0.4081765
-4.350616	nhã	-0.2930649
-4.651646	nhãi	-0.3973488
-4.174525	nhãn	-0.407432
-4.952676	nhãng	-0.2994507
-4.776585	nhão	-0.2696474
-4.554736	nhè	-0.3363208
-4.776585	nhèm	-0.4771043
-3.776585	nhé	-0.9949012
-4.776585	nhép	-0.445952
-4.651646	nhét	-0.394705
-4.475555	nhì	-0.2991031
-3.063375	nhìn	-0.3583809
-4.475555	nhí	-0.3191308
-4.475555	nhích	-0.392951
-4.776585	nhím	-0.3009355
-4.952676	nhít	-0.2698607
-4.952676	nhíu	-0.3009355
-4.776585	nhòe	-0.4761322
-4.952676	nhòm	-0.3006254
-4.253706	nhóc	-0.3525203
-4.776585	nhói	-0.2968718
-3.454365	nhóm	-0.2934289
-4.952676	nhóng	-0.3009307
-4.952676	nhóp	-0.3010227
-4.776585	nhót	-0.2673193
-4.651646	nhô	-0.2944669
-4.776585	nhôm	-0.300921
-4.952676	nhôn	-0.3010203
-4.776585	nhông	-0.2694052
-4.952676	nhõ	-0.2993122
-4.776585	nhõm	-0.2697437
-4.952676	nhõn	-0.2998345
-4.952676	nhõng	-0.3010203
-4.952676	nhù	-0.2698607
-4.952676	nhùi	-0.2698607
-4.952676	nhùng	-0.3006642
-4.776585	nhú	-0.2689284
-4.952676	nhúa	-0.2698607
-4.554736	nhúc	-0.4756027
-4.952676	nhún	-0.3009888
-4.952676	nhúng	-0.300967
-4.651646	nhút	-0.6020358
-4.776585	nhăm	-0.3009501
-4.475555	nhăn	-0.4252926
-4.651646	nhăng	-0.2974704
-4.651646	nhĩ	-0.2951817
-4.952676	nhũ	-0.3007975
-4.023257	nhũng	-0.341794
-4.776585	nhơi	-0.301013
-4.475555	nhơn	-0.3195565
-2.358284	như	-0.3424935
-2.461315	nhưng	-0.293981
-4.776585	nhướng	-0.4770268
-4.299464	nhường	-0.3622904
-4.952676	nhưỡng	-0.2987868
-4.554736	nhược	-0.476593
-4.651646	nhượng	-0.3665053
-3.396374	nhạc	-0.3818684
-4.952676	nhại	-0.2965148
-4.952676	nhạnh	-0.3000458
-4.475555	nhạo	-0.3154677
-4.139763	nhạt	-0.3251052
-4.139763	nhạy	-0.840688
-4.952676	nhả	-0.2992465
-4.776585	nhải	-0.2698503
-4.651646	nhảm	-0.296483
-4.952676	nhảnh	-0.2967031
-4.023257	nhảy	-0.2949341
-4.651646	nhấc	-0.2993341
-4.651646	nhấm	-0.3003999
-4.139763	nhấn	-0.5263662
-4.554736	nhấp	-0.3635228
-2.840406	nhất	-0.4728276
-4.174525	nhầm	-0.4700475
-4.952676	nhầy	-0.3010251
-4.952676	nhẩm	-0.2994459
-4.253706	nhẫn	-0.2581798
-4.952676	nhẫy	-0.3009331
-4.651646	nhậm	-0.60175
-2.842087	nhận	-0.377699
-3.390383	nhập	-0.4328879
-3.440793	nhật	-0.4203033
-4.023257	nhậu	-0.305957
-3.776585	nhắc	-0.4401281
-4.139763	nhắm	-0.4252818
-4.077615	nhắn	-0.3422007
-4.952676	nhắt	-0.2698607
-3.748556	nhằm	-0.370241
-4.776585	nhằn	-0.269163
-4.651646	nhằng	-0.2997787
-4.776585	nhẵn	-0.3003805
-4.952676	nhặm	-0.3006375
-4.952676	nhặng	-0.2698607
-4.139763	nhặt	-0.303086
-3.610254	nhẹ	-0.3953235
-4.776585	nhẹm	-0.2961182
-4.408608	nhẹp	-0.5692747
-4.776585	nhẻm	-0.3006278
-4.651646	nhẽo	-0.2660981
-4.554736	nhếch	-0.4770898
-4.776585	nhện	-0.2694156
-4.952676	nhệu	-0.3010154
-4.077615	nhỉ	-1.144922
-4.952676	nhỉnh	-0.3001501
-4.475555	nhị	-0.2953952
-4.475555	nhịn	-0.3158023
-4.049586	nhịp	-0.3128034
-4.651646	nhọc	-0.2987283
-4.350616	nhọn	-0.4067459
-4.651646	nhọt	-0.267492
-3.156796	nhỏ	-0.2794027
-4.952676	nhỏm	-0.2976413
-4.651646	nhố	-0.2998831
-4.554736	nhối	-0.3350688
-4.651646	nhốt	-0.2980608
-4.475555	nhồi	-0.4258209
-4.952676	nhồn	-0.3010227
-4.952676	nhồng	-0.3001307
-4.651646	nhổm	-0.2675156
-4.776585	nhổn	-0.2698373
-4.952676	nhộn	-0.3009912
-4.776585	nhột	-0.445952
-3.271435	nhớ	-0.3372582
-4.952676	nhớp	-0.3010251
-3.505518	nhờ	-0.2817181
-4.651646	nhờn	-0.2666227
-4.475555	nhở	-0.3156153
-4.952676	nhợt	-0.3009985
-4.952676	nhụa	-0.2977072
-4.651646	nhục	-0.29627
-4.952676	nhụy	-0.3004921
-4.952676	nhủ	-0.3001137
-4.952676	nhủi	-0.2968963
-4.776585	nhủn	-0.4752138
-4.952676	nhứ	-0.3008362
-4.299464	nhức	-0.4135763
-4.952676	nhừ	-0.3006618
-2.117938	những	-0.5121192
-3.974953	nhựa	-0.4098659
-4.952676	nhựt	-0.2987868
-4.475555	ni	-0.2966469
-4.776585	nia	-0.474878
-4.952676	nin	-0.3003975
-3.855766	ninh	-0.3374864
-4.952676	niu	-0.2971773
-4.952676	niêm	-0.300875
-3.651646	niên	-0.2822605
-4.651646	niêu	-0.2994775
-4.952676	niết	-0.3007272
-3.630457	niềm	-0.5486442
-4.952676	niềng	-0.300938
-3.748556	niệm	-0.361019
-4.952676	niệu	-0.3008459
-4.350616	no	-0.2980218
-4.776585	nom	-0.2945087
-4.139763	non	-0.3031973
-4.776585	nong	-0.445952
-4.952676	nua	-0.2971773
-4.350616	nung	-0.3335708
-3.414857	nuôi	-0.3731956
-4.952676	nuông	-0.3008895
-4.475555	nuối	-0.2657332
-4.350616	nuốt	-0.2633365
-4.776585	nà	-0.445952
-4.174525	nàn	-0.3996005
-3.581608	nàng	-0.28636
-4.776585	nành	-0.2687302
-2.64518	nào	-0.4024873
-2.2985	này	-0.4621867
-4.952676	ná	-0.3005212
-4.776585	nách	-0.445952
-4.952676	nám	-0.3003708
-4.776585	nán	-0.4755153
-4.475555	náo	-0.3503261
-4.107578	nát	-0.380701
-4.952676	náu	-0.3006545
-4.952676	náy	-0.300749
-3.776585	nâng	-0.4991848
-4.139763	nâu	-0.400481
-4.952676	nây	-0.299684
-3.931487	não	-0.40504
-4.408608	nãy	-0.4750606
-4.408608	nè	-0.4457413
-4.776585	nèo	-0.2953436
-4.651646	né	-0.6019413
-4.107578	ném	-0.305724
-4.174525	nén	-0.3022556
-4.952676	néo	-0.3006496
-4.952676	nép	-0.2996573
-3.891978	nét	-0.3185479
-4.776585	nê	-0.445952
-4.776585	nêm	-0.3005212
-2.71968	nên	-0.2225705
-4.139763	nêu	-0.394523
-4.952676	nì	-0.2983143
-4.776585	nình	-0.300812
-4.776585	ních	-0.2696213
-4.952676	nín	-0.3009719
-4.952676	nính	-0.2977072
-4.776585	nít	-0.2680436
-4.408608	níu	-0.2921944
-2.852306	nó	-0.3616512
-4.350616	nóc	-0.5163402
-2.668246	nói	-0.3334819
-4.350616	nón	-0.2948306
-3.630457	nóng	-0.3673457
-4.952676	nót	-0.3006375
-4.651646	nô	-0.3978213
-4.475555	nôi	-0.3879212
-4.952676	nôm	-0.300812
-4.253706	nôn	-0.4158379
-3.461314	nông	-0.7117989
-4.651646	nõn	-0.366763
-4.952676	nùn	-0.3010106
-4.952676	nùng	-0.3009743
-4.952676	núc	-0.3010227
-3.651646	núi	-0.3665321
-4.776585	núm	-0.2997155
-4.952676	núng	-0.3010251
-4.952676	núp	-0.2698607
-4.554736	nút	-0.2994653
-2.604371	năm	-0.5514217
-4.776585	năn	-0.477114
-3.038862	năng	-0.3260325
-4.952676	nĩa	-0.3003902
-4.952676	nũng	-0.3010251
-3.116986	nơi	-0.3144259
-4.952676	nơm	-0.3010251
-4.952676	nư	-0.2698607
-4.952676	nương	-0.3004266
-2.616216	nước	-0.3690971
-4.107578	nướng	-0.2959978
-4.776585	nạ	-0.4771043
-4.776585	nạc	-0.445952
-4.651646	nại	-0.2988087
-3.513344	nạn	-0.4870967
-4.952676	nạnh	-0.3006933
-4.475555	nạo	-0.4257483
-4.651646	nạp	-0.2960741
-4.776585	nạt	-0.2987916
-4.952676	nả	-0.3009912
-4.651646	nản	-0.2966909
-4.299464	nảy	-0.4757753
-4.776585	nấc	-0.2652102
-4.350616	nấm	-0.405834
-4.952676	nấng	-0.3006763
-3.697404	nấu	-0.3725328
-4.475555	nấy	-0.5114838
-4.952676	nần	-0.300984
-4.776585	nầy	-0.269426
-4.776585	nậm	-0.3010009
-4.408608	nập	-0.2618286
-4.776585	nậu	-0.2972799
-4.952676	nắc	-0.3010203
-3.673923	nắm	-0.4423837
-4.554736	nắn	-0.2664602
-3.630457	nắng	-0.318996
-4.408608	nắp	-0.3053098
-3.356079	nằm	-0.4470524
-4.952676	nằn	-0.3010251
-4.651646	nằng	-0.3977874
-4.253706	nẵng	-0.263553
-4.475555	nặc	-0.425787
-3.497831	nặng	-0.4262186
-4.651646	nẹp	-0.3967519
-4.651646	nẻ	-0.2673717
-4.651646	nẻo	-0.3969218
-4.776585	nếm	-0.3007393
-4.776585	nến	-0.2695276
-4.776585	nếp	-0.3006206
-4.651646	nết	-0.3667604
-2.803457	nếu	-0.4315086
-4.212314	nề	-0.2783369
-3.52943	nền	-0.4632996
-4.651646	nể	-0.3977365
-4.776585	nệ	-0.4751262
-4.554736	nệm	-0.3316677
-4.776585	nỉ	-0.30007
-4.776585	nịch	-0.2693688
-4.554736	nịnh	-0.3003757
-4.952676	nịu	-0.2993122
-4.049586	nọ	-0.2987493
-4.776585	nọc	-0.3002617
-4.776585	nọng	-0.4768548
-4.952676	nọt	-0.2997131
-4.952676	nỏ	-0.3008798
-4.952676	nố	-0.300984
-4.952676	nốc	-0.3010106
-3.931487	nối	-0.2925148
-4.952676	nống	-0.2992465
-4.554736	nốt	-0.3638651
-4.952676	nồ	-0.3000409
-4.139763	nồi	-0.3067554
-4.952676	nồm	-0.3009961
-4.139763	nồng	-0.4454861
-3.911283	nổ	-0.3322451
-3.421197	nổi	-0.4012388
-3.931487	nỗ	-0.8838116
-3.590948	nỗi	-0.449845
-4.651646	nộ	-0.2677248
-4.952676	nộc	-0.2971773
-3.110692	nội	-0.439436
-4.952676	nộn	-0.2698607
-4.077615	nộp	-0.4018082
-4.952676	nớ	-0.2698607
-4.651646	nới	-0.3006133
-4.952676	nớp	-0.3008168
-4.952676	nớt	-0.2978901
-4.023257	nở	-0.3755307
-4.651646	nỡ	-0.3948514
-3.974953	nợ	-0.2873103
-3.974953	nụ	-0.9997311
-4.475555	nức	-0.3196975
-4.475555	nứt	-0.3187858
-3.572465	nửa	-0.3905504
-3.2284	nữ	-0.341003
-3.129854	nữa	-0.5099134
-4.952676	nự	-0.2698607
-4.952676	nực	-0.3003708
-4.952676	o	-0.3009695
-4.952676	oai	-0.3009501
-4.408608	oan	-0.3109099
-4.776585	oanh	-0.2687928
-4.952676	oe	-0.3010227
-4.776585	oi	-0.477022
-4.952676	om	-0.2698607
-4.475555	ong	-0.2953339
-4.952676	oành	-0.2999268
-4.554736	oác	-0.4761152
-4.952676	oách	-0.2698607
-4.651646	oái	-0.3979255
-4.952676	oán	-0.2965539
-4.776585	oăm	-0.2976193
-4.952676	oạp	-0.3010082
-4.952676	oải	-0.2971773
-4.952676	oắt	-0.2993802
-4.776585	oằn	-0.2993948
-4.554736	pa	-0.2924933
-3.697404	pha	-0.3498706
-4.952676	phai	-0.3010082
-4.212314	phan	-0.4236329
-4.554736	phanh	-0.6989579
-4.350616	phao	-0.288509
-4.952676	phay	-0.3010082
-4.139763	phe	-0.3601729
-4.952676	phen	-0.3010179
-3.630457	phi	-0.3416146
-3.285223	phim	-0.2696516
-3.998434	phiên	-0.4581345
-4.952676	phiêu	-0.3008895
-4.952676	phiếm	-0.2698607
-4.952676	phiết	-0.3009719
-3.974953	phiếu	-0.3009893
-4.107578	phiền	-0.2961822
-4.952676	phiện	-0.2698607
-4.776585	pho	-0.476896
-3.447526	phong	-0.4236931
-4.475555	phu	-0.4242339
-4.651646	phun	-0.2670785
-4.952676	phung	-0.3008507
-4.952676	phuy	-0.3009864
-4.776585	phàm	-0.2689466
-4.475555	phàn	-0.7781222
-4.554736	phào	-0.3348258
-3.396374	phá	-0.3839197
-4.554736	phác	-0.2696135
-4.651646	phách	-0.2693583
-4.253706	phái	-0.3486465
-3.998434	phán	-0.3668024
-4.212314	pháo	-0.2645444
-3.095344	pháp	-0.3360459
-2.866316	phát	-0.618162
-3.468376	phân	-0.4693249
-4.776585	phây	-0.3009985
-4.776585	phè	-0.3006448
-4.776585	phèn	-0.2987016
-4.952676	phèng	-0.3009646
-4.776585	phèo	-0.3008168
-4.952676	phéng	-0.300606
-3.546136	phép	-0.2475697
-4.651646	phét	-0.5708908
-3.662642	phê	-0.3477315
-4.554736	phì	-0.2638222
-4.554736	phình	-0.3670193
-3.384475	phí	-0.3888024
-3.275983	phía	-0.4835464
-4.776585	phích	-0.4760691
-4.408608	phím	-0.3044729
-4.776585	phính	-0.4753378
-4.475555	phò	-0.5115073
-4.952676	phòi	-0.3007999
-3.086389	phòng	-0.317698
-3.685504	phó	-0.4192958
-4.776585	phóc	-0.2921425
-3.722227	phóng	-0.3891728
-4.952676	phót	-0.3001622
-4.952676	phô	-0.3009501
-4.952676	phôi	-0.3009864
-3.662642	phù	-0.9336041
-4.651646	phùng	-0.3975791
-3.855766	phú	-0.3096541
-3.52943	phúc	-0.3200225
-4.952676	phúng	-0.2698607
-3.931487	phút	-0.3002045
-4.952676	phăng	-0.3010251
-4.776585	phĩnh	-0.4762705
-4.554736	phơ	-0.3344441
-4.174525	phơi	-0.3384409
-4.952676	phơn	-0.3010227
-3.074729	phương	-0.4471632
-4.212314	phước	-0.2882993
-4.952676	phướn	-0.2698607
-4.107578	phường	-0.3190941
-4.174525	phượng	-0.3078377
-4.952676	phạc	-0.3010251
-3.367215	phạm	-0.3200828
-4.952676	phạng	-0.3010082
-3.855766	phạt	-0.3125002
-4.651646	phả	-0.2974997
-2.374037	phải	-0.303376
-3.513344	phản	-0.6352819
-4.952676	phảy	-0.3004266
-3.952676	phấn	-0.3638641
-4.651646	phất	-0.269715
-4.952676	phầm	-0.2995164
-3.003286	phần	-0.3501798
-3.249385	phẩm	-0.3201164
-4.408608	phẩy	-0.3401064
-4.776585	phẫn	-0.4771116
-4.174525	phẫu	-0.66794
-3.855766	phận	-0.3040007
-4.174525	phật	-0.3752846
-4.952676	phắc	-0.2698607
-4.475555	phẳng	-0.2667983
-4.554736	phế	-0.3671454
-4.952676	phếch	-0.2971773
-4.776585	phết	-0.4770849
-4.952676	phề	-0.3010251
-4.952676	phều	-0.3010179
-4.952676	phễu	-0.3005818
-4.952676	phệ	-0.3004751
-4.952676	phệnh	-0.3003975
-4.554736	phỉ	-0.6989216
-4.776585	phỉnh	-0.3009355
-4.952676	phịch	-0.2968963
-4.952676	phọt	-0.2992465
-4.049586	phỏng	-0.9289949
-3.314187	phố	-0.3480295
-4.776585	phốc	-0.3000919
-3.952676	phối	-0.3915213
-4.952676	phồm	-0.3010227
-4.651646	phồng	-0.2662503
-3.873495	phổ	-0.6813848
-4.651646	phổi	-0.296008
-4.554736	phổng	-0.6983666
-4.475555	phỗng	-0.4237766
-4.776585	phộng	-0.445952
-4.952676	phới	-0.3004921
-4.776585	phớt	-0.2985482
-4.776585	phờ	-0.2654179
-4.408608	phở	-0.2608814
-4.952676	phỡn	-0.300366
-3.21628	phụ	-0.6064267
-3.271435	phục	-0.3938685
-4.651646	phụng	-0.3004533
-3.546136	phủ	-0.3218307
-4.952676	phủi	-0.3004266
-4.174525	phức	-0.7816713
-4.651646	pin	-0.3666042
-4.952676	piêu	-0.2698607
-4.651646	pí	-0.6020479
-2.80192	qua	-0.3219889
-4.952676	quai	-0.299735
-2.765156	quan	-0.4899516
-3.873495	quang	-0.3320517
-3.427632	quanh	-0.3074863
-3.52943	quay	-0.4739342
-4.651646	que	-0.3008435
-3.630457	quen	-0.3066429
-4.776585	queo	-0.2695094
-3.673923	qui	-0.6015015
-4.952676	quoạng	-0.2698607
-3.490278	quy	-0.6527455
-4.475555	quyên	-0.346506
-4.299464	quyến	-0.437782
-3.139763	quyết	-0.4627002
-3.245106	quyền	-0.3343846
-4.077615	quyển	-0.399679
-4.651646	quyện	-0.3917922
-4.776585	quyệt	-0.4770825
-3.822343	quà	-0.3007102
-4.776585	quài	-0.3004193
-4.651646	quàng	-0.3001501
-4.776585	quày	-0.4767143
-2.795824	quá	-0.4414169
-4.952676	quác	-0.3001137
-4.554736	quách	-0.3004145
-4.174525	quái	-0.3430521
-3.447526	quán	-0.3990161
-4.651646	quáng	-0.3966159
-4.554736	quánh	-0.3343996
-4.350616	quát	-0.2989245
-3.776585	quân	-0.3439281
-4.651646	quây	-0.3978189
-4.651646	quãng	-0.2997714
-4.651646	què	-0.3972712
-4.952676	quèn	-0.3008774
-4.174525	quét	-0.3366847
-3.537703	quê	-0.3290984
-3.630457	quên	-0.3802647
-4.952676	quì	-0.3006496
-4.253706	quí	-0.2943307
-4.651646	quít	-0.2982802
-3.662642	quý	-0.3456829
-4.776585	quýnh	-0.3001525
-4.776585	quýt	-0.445952
-4.952676	quăm	-0.2955619
-4.776585	quăng	-0.295297
-4.952676	quĩ	-0.3009331
-4.952676	quạc	-0.3009065
-4.776585	quạch	-0.2989133
-4.952676	quại	-0.300967
-4.952676	quạng	-0.3010251
-4.952676	quạnh	-0.3010106
-4.475555	quạt	-0.3518167
-3.028397	quả	-0.3495981
-4.952676	quải	-0.2995795
-3.372893	quản	-0.7847151
-3.651646	quảng	-0.6878823
-4.952676	quảy	-0.3007151
-4.475555	quấn	-0.3490134
-4.408608	quất	-0.3042932
-4.952676	quấy	-0.3010203
-3.651646	quần	-0.5138637
-4.651646	quầng	-0.2697333
-4.253706	quầy	-0.3251044
-4.299464	quẩn	-0.2919798
-4.952676	quẫn	-0.301013
-4.776585	quẫy	-0.4770873
-4.107578	quận	-0.297196
-4.299464	quật	-0.3340148
-4.776585	quậy	-0.4769469
-4.776585	quắc	-0.3000336
-4.952676	quắn	-0.3010203
-4.952676	quắt	-0.3010227
-4.952676	quằn	-0.3010251
-4.776585	quẳng	-0.2978487
-4.952676	quặc	-0.2698607
-4.952676	quặm	-0.2698607
-4.952676	quặn	-0.3008823
-4.952676	quặt	-0.2698607
-4.952676	quẹo	-0.3006715
-4.408608	quế	-0.2982778
-4.776585	quết	-0.2990301
-4.952676	quềnh	-0.3001307
-4.952676	quệ	-0.3009016
-4.952676	quệnh	-0.3010251
-4.952676	quỉ	-0.3010251
-4.952676	quị	-0.2987868
-3.057807	quốc	-0.4962532
-4.776585	quới	-0.2979901
-4.952676	quớt	-0.2698607
-4.952676	quờ	-0.3010251
-4.952676	quờn	-0.300921
-4.776585	quỳ	-0.300967
-4.253706	quỳnh	-0.3226357
-4.952676	quỵ	-0.2698607
-4.952676	quỵt	-0.3009937
-4.776585	quỷ	-0.2696968
-4.174525	quỹ	-0.3684461
-2.387419	ra	-0.2567221
-4.651646	rai	-0.269426
-4.952676	ram	-0.300429
-4.651646	ran	-0.29566
-4.350616	rang	-0.3486803
-4.299464	ranh	-0.5621864
-4.651646	rao	-0.3005672
-3.911283	rau	-0.3100795
-4.651646	ray	-0.297424
-4.776585	re	-0.445952
-4.651646	ren	-0.3002059
-4.952676	reng	-0.2995261
-4.212314	reo	-0.3492792
-4.776585	ri	-0.2695875
-4.651646	ria	-0.2986139
-4.952676	rinh	-0.2698607
-4.952676	riu	-0.3010179
-3.372893	riêng	-0.3683236
-4.952676	riêu	-0.3008629
-4.952676	riếp	-0.2698607
-4.253706	riết	-0.4126957
-4.776585	riệt	-0.4742862
-4.212314	ro	-0.3811443
-4.776585	roi	-0.445952
-4.952676	rom	-0.2698607
-4.253706	rong	-0.4801258
-4.651646	ru	-0.3002423
-4.952676	rua	-0.2698607
-4.077615	run	-0.4034617
-4.253706	rung	-0.5101802
-4.776585	ruốc	-0.2698217
-4.554736	ruồi	-0.2965759
-4.776585	ruổi	-0.2991006
-4.952676	ruỗng	-0.2698607
-3.891978	ruộng	-0.2995563
-3.974953	ruột	-0.4306696
-4.408608	rà	-0.4767506
-3.762344	ràng	-0.3401971
-4.475555	rành	-0.2975559
-4.299464	rào	-0.3632291
-4.776585	rày	-0.2995431
-3.791308	rác	-0.291606
-4.212314	rách	-0.3133996
-4.776585	rái	-0.4768548
-4.776585	rán	-0.2696266
-4.651646	ráng	-0.2992052
-4.408608	ráo	-0.3963996
-4.554736	ráp	-0.2677744
-4.952676	rát	-0.3000409
-4.651646	ráy	-0.2925427
-4.952676	râm	-0.3010203
-4.651646	rân	-0.6020503
-4.408608	râu	-0.34016
-4.350616	rã	-0.4078251
-4.651646	rãi	-0.2971651
-4.952676	rãy	-0.2698607
-4.776585	rèm	-0.2987503
-4.408608	rèn	-0.3949708
-4.952676	rèo	-0.3010203
-4.952676	rén	-0.2955619
-4.952676	réo	-0.3008726
-4.299464	rét	-0.2990252
-4.776585	rê	-0.299905
-4.408608	rên	-0.3407438
-4.554736	rêu	-0.3364797
-4.776585	rì	-0.2698529
-4.952676	rìa	-0.2968963
-4.651646	rình	-0.397911
-4.554736	rít	-0.2965197
-4.554736	ríu	-0.367046
-4.952676	ròi	-0.3001792
-4.952676	ròm	-0.3010251
-4.475555	ròng	-0.2635451
-4.952676	ró	-0.2991225
-4.952676	róc	-0.3010033
-4.952676	rói	-0.3008968
-4.952676	rón	-0.3010251
-4.952676	rót	-0.3006618
-4.554736	rô	-0.2695068
-4.952676	rôm	-0.3010227
-3.280578	rõ	-0.4055707
-4.475555	rùa	-0.2679234
-4.952676	rùm	-0.3010251
-4.776585	rú	-0.2986553
-4.952676	rúc	-0.3007684
-4.952676	rúm	-0.3010251
-4.776585	rúng	-0.2996646
-3.911283	rút	-0.323375
-4.350616	răn	-0.3765052
-3.873495	răng	-0.3205239
-4.952676	rĩ	-0.2965539
-4.475555	rũ	-0.2654547
-4.952676	rơ	-0.3006448
-3.630457	rơi	-0.4272714
-4.350616	rơm	-0.3035106
-4.952676	rơn	-0.3009961
-4.408608	rưng	-0.3970456
-4.776585	rươi	-0.2682447
-4.651646	rước	-0.3973075
-4.952676	rưới	-0.2698607
-4.952676	rướm	-0.300904
-4.952676	rười	-0.3010203
-4.776585	rưởi	-0.2962015
-4.952676	rưỡi	-0.2698607
-4.651646	rượi	-0.2641228
-4.651646	rượt	-0.2688423
-3.974953	rượu	-0.3099782
-4.651646	rạ	-0.3007805
-4.350616	rạch	-0.3777416
-4.408608	rạn	-0.310962
-4.776585	rạng	-0.3007878
-4.651646	rạo	-0.3978189
-4.350616	rạp	-0.2661244
-4.776585	rạt	-0.3009695
-4.952676	rạy	-0.3006642
-4.776585	rả	-0.294403
-4.408608	rải	-0.3378781
-4.651646	rảnh	-0.3973294
-4.776585	rảo	-0.4769227
-4.651646	rấn	-0.6010078
-4.952676	rấp	-0.300984
-2.646251	rất	-0.4542221
-4.776585	rầm	-0.3008653
-4.651646	rần	-0.3009549
-4.776585	rầu	-0.3009937
-4.554736	rầy	-0.2999268
-4.952676	rẩy	-0.2992927
-4.475555	rẫy	-0.2940587
-4.952676	rận	-0.2698607
-4.651646	rập	-0.300623
-4.952676	rật	-0.298665
-4.299464	rắc	-0.5627359
-4.776585	rắm	-0.296527
-4.174525	rắn	-0.3120865
-4.776585	rằm	-0.300669
-2.977245	rằng	-0.3468581
-4.776585	rặng	-0.3009065
-4.651646	rẹo	-0.299905
-4.776585	rẹt	-0.2698529
-4.023257	rẻ	-0.2868262
-4.475555	rẽ	-0.2942628
-4.952676	rế	-0.3004727
-4.952676	rến	-0.3007248
-4.952676	rết	-0.2698607
-4.776585	rề	-0.4771043
-4.554736	rể	-0.2970112
-4.408608	rễ	-0.2655862
-4.776585	rệ	-0.3001574
-4.475555	rệt	-0.3886369
-4.952676	rệu	-0.3010106
-4.776585	rỉ	-0.2698503
-4.776585	rỉa	-0.2991882
-4.776585	rỉnh	-0.4764767
-4.776585	rịa	-0.4771067
-4.776585	rịch	-0.3000652
-4.651646	rịn	-0.2965172
-4.952676	rịt	-0.3009961
-4.952676	rọ	-0.3010251
-4.952676	rọc	-0.3008726
-4.952676	rọi	-0.3009476
-4.952676	rỏi	-0.3007369
-4.651646	rốc	-0.2994386
-3.722227	rối	-0.4517497
-4.776585	rốn	-0.2696083
-4.952676	rống	-0.3001622
-4.776585	rốp	-0.2698529
-4.554736	rốt	-0.3673274
-4.776585	rồ	-0.2676646
-2.77514	rồi	-0.3378859
-4.408608	rồng	-0.3072677
-4.952676	rổ	-0.3004727
-4.776585	rỗi	-0.2657201
-4.253706	rỗng	-0.2854191
-4.776585	rộ	-0.2977926
-4.952676	rộc	-0.2994532
-4.174525	rộn	-0.3393571
-3.620238	rộng	-0.3159757
-4.952676	rộp	-0.3010033
-4.776585	rớm	-0.4760691
-4.107578	rớt	-0.2986673
-4.776585	rờ	-0.3008871
-3.873495	rời	-0.341798
-4.952676	rờm	-0.3010179
-4.776585	rờn	-0.2698503
-4.554736	rỡ	-0.2983167
-4.952676	rỡn	-0.299035
-4.952676	rợ	-0.2698607
-4.952676	rợi	-0.2995164
-4.651646	rợn	-0.2973068
-4.554736	rợp	-0.3672522
-4.776585	rục	-0.477114
-4.952676	rụi	-0.2979194
-4.139763	rụng	-0.3993426
-4.408608	rủ	-0.3973124
-4.651646	rủa	-0.2684066
-4.174525	rủi	-0.7817155
-4.776585	rủng	-0.477114
-4.776585	rức	-0.268798
-4.952676	rứt	-0.3009573
-3.600494	rừng	-0.3351594
-4.107578	rửa	-0.3540375
-4.952676	rữa	-0.2698607
-4.776585	rựa	-0.2994483
-3.998434	rực	-0.3890851
-3.838733	sa	-0.5104542
-3.581608	sai	-0.5062683
-4.776585	sam	-0.2674502
-4.475555	san	-0.2964022
-3.408608	sang	-0.314211
-4.952676	sanh	-0.2991906
-2.875308	sao	-0.4031398
-2.676214	sau	-0.5111179
-3.855766	say	-0.4147016
-4.952676	se	-0.3009259
-4.408608	sen	-0.2961673
-4.776585	si	-0.2964095
-4.554736	sim	-0.2643758
-2.749916	sinh	-0.3725466
-4.077615	siêu	-0.5194656
-4.952676	siết	-0.3007587
-3.590948	so	-0.9961522
-4.139763	soi	-0.3299505
-4.299464	son	-0.3287451
-3.735192	song	-0.3131876
-3.855766	soát	-0.2831087
-4.139763	soạn	-0.4437977
-4.952676	soạng	-0.3001137
-4.952676	soạt	-0.3008338
-4.049586	su	-0.3533518
-4.651646	sum	-0.3978577
-4.952676	sun	-0.2698607
-3.873495	sung	-0.3195505
-3.497831	suy	-0.6211473
-4.952676	suyển	-0.3007829
-4.776585	suyễn	-0.445952
-4.776585	suýt	-0.4770316
-3.791308	suất	-0.3499191
-4.408608	suối	-0.295032
-3.440793	suốt	-0.4703245
-4.651646	sà	-0.3964167
-3.776585	sài	-0.825754
-4.952676	sàm	-0.3010227
-3.911283	sàn	-0.3351828
-3.806548	sàng	-0.2719296
-4.212314	sành	-0.636546
-4.651646	sào	-0.3978746
-4.475555	sá	-0.2969428
-4.776585	sác	-0.2964903
-3.153336	sách	-0.2903266
-4.554736	sái	-0.3000385
-4.952676	sán	-0.300795
-3.123373	sáng	-0.3685938
-4.077615	sánh	-0.285418
-4.350616	sáo	-0.2608548
-4.651646	sáp	-0.393909
-3.345221	sát	-0.2716705
-2.861009	sáu	-1.003254
-4.776585	sâm	-0.2986748
-3.427632	sân	-0.4681107
-3.482854	sâu	-0.4177914
-4.776585	sãi	-0.2673193
-4.952676	sèo	-0.2698607
-4.651646	séc	-0.2675966
-4.651646	sét	-0.2970601
-4.952676	sên	-0.3008992
-4.952676	sênh	-0.3003854
-4.952676	sêu	-0.2995795
-4.776585	sì	-0.296456
-4.776585	sính	-0.2999438
-4.554736	sò	-0.3008677
-4.952676	sòng	-0.3010154
-3.735192	sóc	-0.343026
-4.651646	sói	-0.2686415
-4.952676	són	-0.2992465
-3.748556	sóng	-0.2668959
-3.998434	sót	-0.3460931
-4.475555	sô	-0.3472781
-3.998434	sôi	-0.4566729
-3.537703	sông	-0.3099119
-4.776585	sõi	-0.3006375
-4.952676	sùi	-0.2698607
-4.952676	sú	-0.2971773
-4.554736	súc	-0.4768621
-3.952676	súng	-0.2779145
-4.952676	súp	-0.3009816
-4.299464	sút	-0.2661191
-4.952676	súy	-0.300938
-4.299464	săn	-0.2987137
-3.086389	sĩ	-0.2766878
-4.952676	sũng	-0.2999778
-3.497831	sơ	-0.3484324
-4.952676	sơm	-0.3009501
-3.434162	sơn	-0.3440023
-3.590948	sư	-0.3346418
-4.776585	sưa	-0.298441
-4.475555	sưng	-0.299633
-4.408608	sưu	-0.6016433
-3.998434	sương	-0.3342272
-4.174525	sướng	-0.307888
-4.952676	sướt	-0.3010227
-4.554736	sườn	-0.3366645
-4.776585	sường	-0.4771092
-4.554736	sưởi	-0.2968034
-4.952676	sượt	-0.2698607
-3.873495	sạch	-0.3002659
-4.952676	sạm	-0.3009331
-4.023257	sạn	-0.3962881
-4.952676	sạo	-0.3009525
-4.651646	sạp	-0.3002326
-4.299464	sạt	-0.6677591
-3.066185	sản	-0.6329052
-4.776585	sảng	-0.4770898
-4.651646	sảnh	-0.3660756
-4.952676	sảo	-0.2995261
-4.952676	sảy	-0.3010203
-4.776585	sấm	-0.300967
-4.554736	sấu	-0.2684588
-4.408608	sấy	-0.3419429
-4.776585	sầm	-0.4771067
-4.952676	sần	-0.3010251
-4.651646	sầu	-0.300446
-4.776585	sẩn	-0.3008653
-4.952676	sẩy	-0.2999268
-4.952676	sẫm	-0.3009622
-4.475555	sập	-0.3007611
-3.572465	sắc	-0.3454363
-3.952676	sắm	-0.3047252
-4.776585	sắn	-0.2697385
-4.952676	sắng	-0.3004048
-3.776585	sắp	-0.4960865
-3.931487	sắt	-0.3322189
-3.762344	sẵn	-0.6361889
-4.776585	sặc	-0.3009767
-4.952676	sẹm	-0.2698607
-4.299464	sẹo	-0.3304761
-3.697404	sẻ	-0.3477317
-4.952676	sẻn	-0.3007878
-2.458522	sẽ	-0.4205795
-4.776585	sếp	-0.2986383
-4.952676	sếu	-0.2995261
-4.776585	sền	-0.477114
-4.776585	sể	-0.445952
-4.952676	sểnh	-0.2992465
-4.952676	sễ	-0.3007684
-4.776585	sệt	-0.2688945
-4.952676	sịt	-0.2698607
-4.554736	sọ	-0.3331814
-4.952676	sọm	-0.3010251
-4.952676	sọt	-0.3007635
-4.952676	sỏ	-0.2968963
-4.776585	sỏi	-0.2696266
-2.765156	số	-0.3415037
-4.952676	sốc	-0.299035
-2.86454	sống	-0.3844788
-4.139763	sốt	-0.3025183
-4.952676	sồ	-0.2968963
-4.952676	sồi	-0.300938
-4.554736	sồn	-0.4766851
-3.855766	sổ	-0.4421264
-4.952676	sỗ	-0.3009622
-4.952676	sộ	-0.3009622
-4.952676	sột	-0.3010251
-4.475555	sớ	-0.2965246
-4.952676	sới	-0.301013
-3.735192	sớm	-0.3283861
-4.952676	sớn	-0.3010227
-4.776585	sớt	-0.2987356
-4.651646	sờ	-0.2990277
-4.952676	sờm	-0.3010227
-4.952676	sờn	-0.3010033
-3.309224	sở	-0.323431
-4.776585	sỡ	-0.2669423
-3.447526	sợ	-0.3645287
-4.107578	sợi	-0.4170735
-4.952676	sụa	-0.3008992
-4.554736	sục	-0.3002205
-4.776585	sụn	-0.3004387
-4.952676	sụp	-0.3005624
-4.408608	sụt	-0.3417587
-4.651646	sủa	-0.2674188
-4.952676	sủi	-0.2965148
-4.350616	sứ	-0.2623212
-4.952676	sứa	-0.3007054
-3.107578	sức	-0.4417994
-4.952676	sứt	-0.3009113
-4.776585	sừng	-0.3010179
-3.220283	sử	-0.8202188
-3.776585	sửa	-0.3735153
-4.952676	sửng	-0.3010251
-3.762344	sữa	-0.3173289
-4.776585	sững	-0.2957188
-2.577013	sự	-0.2755658
-4.776585	sực	-0.4766658
-4.408608	sỹ	-0.3082381
-4.475555	t	-0.746982
-2.654916	ta	-0.3815875
-3.475555	tai	-0.3956697
-4.299464	tam	-0.3289495
-3.974953	tan	-0.2876616
-4.174525	tang	-0.369893
-4.651646	tanh	-0.296664
-3.610254	tao	-0.4138747
-2.857507	tay	-0.286033
-4.952676	te	-0.3008968
-4.651646	tem	-0.3666693
-4.776585	ten	-0.2662897
-4.554736	teo	-0.2650787
-3.998434	tha	-0.4241636
-3.791308	thai	-0.3239868
-3.319208	tham	-1.014884
-3.776585	than	-0.3761426
-3.952676	thang	-0.37213
-3.129854	thanh	-0.417518
-3.891978	thao	-0.2860641
-3.208383	thay	-0.69634
-4.776585	the	-0.2698556
-4.554736	then	-0.4770607
-2.679675	theo	-0.3797219
-3.060582	thi	-0.3610722
-4.952676	thia	-0.3008314
-4.952676	thin	-0.3010227
-4.651646	thinh	-0.2967545
-4.651646	thiêm	-0.2978462
-3.52943	thiên	-0.4320874
-4.554736	thiêng	-0.336766
-4.952676	thiếc	-0.3007054
-4.299464	thiếp	-0.4418245
-3.324287	thiết	-0.5735857
-3.280578	thiếu	-0.3227705
-4.776585	thiềm	-0.4771067
-4.651646	thiền	-0.2991274
-4.776585	thiều	-0.2984629
-4.952676	thiển	-0.3004727
-4.049586	thiểu	-0.383594
-3.748556	thiện	-0.3006237
-4.554736	thiệp	-0.2639857
-3.735192	thiệt	-0.5813628
-3.855766	thiệu	-0.3066595
-4.776585	tho	-0.2698556
-4.475555	thoa	-0.3195304
-4.952676	thoang	-0.3009743
-4.651646	thoi	-0.2986504
-4.776585	thon	-0.3006618
-4.651646	thong	-0.3978649
-4.299464	thoái	-0.4757388
-4.139763	thoáng	-0.3075092
-3.822343	thoát	-0.391511
-4.952676	thoăn	-0.3010251
-3.685504	thoại	-0.294008
-4.776585	thoạt	-0.2994969
-4.952676	thoả	-0.3007078
-4.049586	thoải	-1.204011
-3.891978	thoảng	-0.3888239
-4.952676	thoắt	-0.3010058
-3.110692	thu	-0.4412366
-3.838733	thua	-0.362134
-4.651646	thui	-0.3667578
-4.475555	thun	-0.3198358
-4.554736	thung	-0.477097
-4.408608	thuyên	-0.4439128
-3.662642	thuyết	-0.4870588
-3.891978	thuyền	-0.3111652
-3.697404	thuê	-0.3230684
-4.139763	thuần	-0.4311689
-4.350616	thuẫn	-0.2899894
-3.572465	thuận	-0.3132279
-3.324287	thuật	-0.2927191
-3.651646	thuế	-0.3021253
-3.193008	thuốc	-0.3456296
-4.952676	thuồng	-0.2993122
-3.454365	thuộc	-0.3756151
-4.554736	thuở	-0.299249
-4.299464	thuỷ	-0.3356874
-4.475555	thà	-0.2989255
-4.952676	thài	-0.3010251
-2.659314	thành	-0.405792
-4.776585	thào	-0.3000239
-3.855766	thác	-0.2454582
-4.077615	thách	-0.3674562
-3.434162	thái	-0.3948015
-4.212314	thám	-0.6362502
-4.776585	thán	-0.4768887
-3.232517	tháng	-0.3597155
-4.554736	thánh	-0.2689831
-4.107578	tháo	-0.3596793
-4.139763	tháp	-0.3007068
-4.299464	thâm	-0.2678581
-3.063375	thân	-0.359842
-4.776585	thâu	-0.4768815
-4.554736	thây	-0.6678008
-4.952676	thãi	-0.3005357
-4.299464	thèm	-0.3620033
-4.554736	thèo	-0.4770946
-3.998434	thép	-0.2810223
-4.952676	thét	-0.3010227
-4.651646	thê	-0.2922982
-3.170921	thêm	-0.3613254
-4.776585	thênh	-0.4770728
-4.776585	thêu	-0.2968865
-2.507851	thì	-0.2636037
-4.952676	thìa	-0.3010203
-4.952676	thìn	-0.3010203
-4.651646	thình	-0.2971676
-4.952676	thìu	-0.3010179
-3.620238	thí	-1.059267
-4.776585	thía	-0.300036
-3.129854	thích	-0.3442852
-4.952676	thím	-0.2994532
-4.952676	thín	-0.299424
-4.554736	thính	-0.3364406
-4.952676	thíp	-0.2698607
-4.776585	thít	-0.2657201
-4.776585	thò	-0.2986407
-4.554736	thòi	-0.3637771
-4.651646	thòng	-0.3667604
-4.952676	thó	-0.3004484
-4.952676	thóa	-0.3010058
-4.651646	thóc	-0.2967985
-4.212314	thói	-0.5438476
-4.776585	thóp	-0.3008338
-4.952676	thót	-0.300921
-4.299464	thô	-0.2679809
-3.280578	thôi	-0.5579024
-3.974953	thôn	-0.2941239
-2.911283	thông	-0.4976467
-4.776585	thõng	-0.3003999
-4.077615	thù	-0.3693295
-4.776585	thùm	-0.477114
-4.554736	thùng	-0.2992976
-4.299464	thùy	-0.3283935
-3.402448	thú	-0.488188
-3.709638	thúc	-0.3853458
-4.651646	thúng	-0.3006618
-4.776585	thút	-0.3009646
-4.253706	thúy	-0.3155427
-3.685504	thăm	-0.3490318
-4.049586	thăng	-0.464897
-4.952676	thũng	-0.2989303
-3.461314	thơ	-0.315824
-4.952676	thơi	-0.2698607
-3.974953	thơm	-0.3087049
-3.378645	thư	-0.3798831
-3.838733	thưa	-0.4807529
-3.02582	thương	-0.3693258
-4.350616	thước	-0.2998488
-2.819137	thường	-0.3966163
-3.620238	thưởng	-0.4119859
-4.952676	thưỡi	-0.2992465
-4.952676	thưỡn	-0.3007635
-4.776585	thược	-0.4770801
-4.049586	thượng	-0.3408841
-4.350616	thạc	-0.6528395
-4.299464	thạch	-0.2997325
-4.952676	thạnh	-0.2698607
-4.554736	thạo	-0.2976681
-3.822343	thả	-0.2864985
-3.822343	thải	-0.3373163
-4.107578	thảm	-0.383978
-4.174525	thản	-0.3384927
-4.952676	thảng	-0.3010251
-4.776585	thảnh	-0.29819
-3.673923	thảo	-0.4138049
-4.651646	thảy	-0.2987016
-4.299464	thấm	-0.4133406
-3.600494	thấp	-0.4692982
-3.546136	thất	-0.5023522
-4.554736	thấu	-0.4768233
-2.691413	thấy	-0.2747425
-4.049586	thầm	-0.3039682
-3.356079	thần	-0.3986398
-4.174525	thầu	-0.304829
-3.309224	thầy	-0.3528481
-4.077615	thẩm	-0.5778567
-4.475555	thẩn	-0.2651892
-4.952676	thẫm	-0.2698607
-4.952676	thẫn	-0.3009695
-3.600494	thậm	-1.361408
-3.791308	thận	-0.3266622
-4.350616	thập	-0.3784084
-2.891979	thật	-0.4306269
-3.806548	thắc	-1.447008
-4.475555	thắn	-0.3459585
-3.600494	thắng	-0.3541544
-4.299464	thắp	-0.4757995
-4.174525	thắt	-0.4092194
-4.475555	thằn	-0.7781367
-3.521312	thằng	-0.3876552
-4.651646	thẳm	-0.3642294
-3.56351	thẳng	-0.3586877
-4.212314	thẻ	-0.4214779
-2.58532	thế	-0.5526465
-4.952676	thếch	-0.3004218
-4.952676	thếp	-0.3008144
-4.299464	thề	-0.2876858
-4.776585	thềm	-0.2683022
-4.952676	thều	-0.3010227
-2.408608	thể	-0.3182743
-4.776585	thệ	-0.2982168
-4.952676	thỉ	-0.2992927
-3.952676	thỉnh	-0.6801357
-3.028397	thị	-0.4798605
-4.952676	thịch	-0.2698607
-4.212314	thịnh	-0.3840996
-3.640922	thịt	-0.2844948
-4.952676	thịu	-0.3009137
-4.350616	thọ	-0.3465817
-4.952676	thọc	-0.3010251
-4.475555	thọt	-0.508456
-4.776585	thỏ	-0.445952
-3.791308	thỏa	-0.6508355
-4.952676	thỏi	-0.3008144
-4.952676	thỏm	-0.3009525
-4.952676	thố	-0.3001501
-4.952676	thốc	-0.3009985
-4.212314	thối	-0.3512894
-4.776585	thốn	-0.2974802
-3.350616	thống	-0.3844516
-4.952676	thốt	-0.300967
-4.952676	thồ	-0.3001622
-4.952676	thồi	-0.2698607
-4.952676	thồn	-0.3010033
-4.212314	thổ	-0.3937758
-4.139763	thổi	-0.3903062
-4.952676	thộp	-0.3007587
-4.776585	thới	-0.3005963
-4.651646	thớt	-0.2680018
-3.855766	thờ	-0.3179615
-2.812797	thời	-0.6004432
-3.873495	thở	-0.3795574
-3.998434	thợ	-0.3254259
-3.873495	thụ	-0.3074987
-4.651646	thục	-0.3004387
-4.776585	thụng	-0.3010203
-4.776585	thụp	-0.445952
-4.952676	thụt	-0.2996378
-4.299464	thụy	-0.4704819
-3.123373	thủ	-0.3727297
-4.952676	thủa	-0.2698607
-4.554736	thủi	-0.3649881
-4.776585	thủng	-0.3005115
-3.651646	thủy	-0.3891533
-3.089354	thứ	-0.3987257
-3.074729	thức	-0.3121345
-4.475555	thừ	-0.5405646
-3.735192	thừa	-0.4549407
-4.776585	thừng	-0.299633
-3.52943	thử	-0.463815
-4.952676	thửa	-0.2698607
-4.952676	thững	-0.2994532
-4.350616	thự	-0.2944718
-2.869891	thực	-0.7652968
-4.350616	ti	-0.3485136
-4.299464	tia	-0.3295354
-3.685504	tim	-0.2667951
-2.979548	tin	-0.3594778
-3.408608	tinh	-0.5626571
-4.952676	tiu	-0.3010251
-4.350616	tiêm	-0.2985395
-3.189248	tiên	-0.3525029
-3.116986	tiêu	-0.431797
-3.776585	tiếc	-0.4603354
-4.952676	tiếm	-0.3007829
-3.249385	tiến	-0.5019101
-3.052309	tiếng	-0.3574596
-2.991255	tiếp	-0.5528545
-3.440793	tiết	-0.3993826
-4.554736	tiếu	-0.3636329
-4.299464	tiềm	-0.5634692
-2.828825	tiền	-0.3466718
-3.640922	tiểu	-0.4122941
-4.174525	tiễn	-0.2832775
-4.952676	tiễu	-0.2698607
-4.350616	tiệc	-0.3424597
-3.838733	tiệm	-0.3417788
-3.722227	tiện	-0.2605533
-3.640922	to	-0.2911497
-4.350616	toa	-0.4373839
-4.253706	toan	-0.4125043
-4.952676	toanh	-0.2989401
-4.776585	toe	-0.3009743
-4.952676	tong	-0.3009767
-4.952676	top	-0.3010227
-4.776585	toà	-0.2995479
-4.952676	toài	-0.2698607
-3.010668	toàn	-0.4354698
-4.651646	toái	-0.2623397
-3.620238	toán	-0.3095299
-4.952676	toát	-0.300766
-4.776585	toét	-0.2697697
-4.952676	toạc	-0.2698607
-4.651646	toả	-0.2957581
-4.952676	toản	-0.300812
-4.952676	toẹt	-0.3006375
-3.220283	tra	-0.2708173
-3.390383	trai	-0.3419721
-3.253706	trang	-0.4891919
-3.245106	tranh	-0.3635034
-3.822343	trao	-0.4269466
-4.554736	trau	-0.3679574
-4.077615	tre	-0.2925301
-4.174525	treo	-0.3126194
-4.107578	tri	-0.3255692
-4.253706	trinh	-0.322747
-4.952676	triêng	-0.3006642
-4.299464	triết	-0.4120359
-4.554736	triền	-0.4770655
-4.952676	triềng	-0.3007684
-4.107578	triều	-0.2929401
-3.146496	triển	-0.3979729
-4.952676	triệng	-0.2996378
-4.554736	triệt	-0.2958095
-3.620238	triệu	-0.6108485
-4.475555	tro	-0.2641914
-2.265147	trong	-0.4456172
-4.554736	tru	-0.4763724
-2.941952	trung	-0.5210589
-4.253706	truy	-0.4463291
-3.390383	truyền	-0.4942297
-4.049586	truyện	-0.3877356
-4.952676	truân	-0.2968963
-4.554736	truật	-0.4458896
-4.952676	truồng	-0.3008895
-3.762344	trà	-0.3502878
-4.952676	trài	-0.2998127
-4.475555	tràm	-0.2697489
-3.998434	tràn	-0.487024
-4.299464	tràng	-0.2983985
-4.952676	trành	-0.3003005
-4.049586	trào	-0.2961124
-4.952676	trá	-0.2698607
-3.408608	trách	-0.6247745
-3.314187	trái	-0.4214679
-4.952676	trám	-0.299424
-4.475555	trán	-0.29591
-4.350616	tráng	-0.2580782
-3.56351	tránh	-0.3351829
-4.952676	tráo	-0.299684
-4.952676	tráp	-0.3007272
-4.952676	trát	-0.300795
-4.350616	trâm	-0.2653811
-4.107578	trân	-0.8746688
-4.107578	trâu	-0.281928
-4.952676	trã	-0.2998345
-4.952676	trãi	-0.2698607
-4.554736	trèo	-0.3620279
-4.952676	trém	-0.3008823
-4.952676	tréo	-0.3010251
-4.776585	trê	-0.445952
-2.595695	trên	-0.383571
-4.776585	trêu	-0.3007417
-4.253706	trì	-0.2905572
-3.038862	trình	-0.3064609
-4.952676	trìu	-0.3009767
-3.329427	trí	-0.2931969
-4.475555	trích	-0.3464864
-3.396374	trò	-0.3779732
-3.855766	tròn	-0.2989039
-4.776585	tròng	-0.2698556
-4.651646	tróc	-0.2694834
-4.952676	tróng	-0.3007005
-4.554736	trót	-0.2986212
-3.952676	trôi	-0.3932817
-4.952676	trôm	-0.3009598
-3.709638	trông	-0.3169277
-4.952676	trõn	-0.2955619
-4.651646	trù	-0.2954319
-4.952676	trùi	-0.3010203
-4.475555	trùm	-0.2988647
-4.952676	trùn	-0.2698607
-4.077615	trùng	-0.2791085
-4.023257	trú	-0.3411062
-3.952676	trúc	-0.2981067
-4.952676	trúm	-0.3003975
-3.974953	trúng	-0.3817534
-4.475555	trút	-0.2960962
-3.461314	trăm	-0.4827697
-4.475555	trăn	-0.5416179
-4.023257	trăng	-0.3108773
-4.776585	trĩ	-0.2691525
-4.651646	trĩu	-0.2686702
-4.554736	trũng	-0.3637233
-4.350616	trơ	-0.378316
-4.952676	trơi	-0.2698607
-4.408608	trơn	-0.3975427
-4.952676	trư	-0.3009937
-3.952676	trưa	-0.396694
-3.952676	trưng	-0.4194676
-3.735192	trương	-0.3154946
-2.832102	trước	-0.4075357
-4.952676	trướng	-0.3009307
-2.699823	trường	-0.3900443
-3.390383	trưởng	-0.3592409
-4.651646	trưỡng	-0.3664455
-4.475555	trượt	-0.3208155
-4.952676	trạc	-0.3008071
-3.998434	trại	-0.3016131
-3.952676	trạm	-0.3468535
-3.396374	trạng	-0.2763008
-3.212314	trả	-0.6786492
-3.685504	trải	-0.4946237
-4.952676	trảo	-0.3010251
-4.952676	trảu	-0.300904
-4.253706	trấn	-0.2658803
-4.776585	trấu	-0.2963116
-3.873495	trầm	-0.3522752
-3.581608	trần	-0.295863
-4.952676	trầu	-0.2698607
-4.554736	trầy	-0.3679357
-4.651646	trẫm	-0.601922
-3.461314	trận	-0.4224462
-4.174525	trật	-0.5033884
-4.212314	trắc	-0.5113481
-3.52943	trắng	-0.3300956
-4.952676	trằn	-0.3010179
-4.554736	trặc	-0.333483
-4.952676	trặn	-0.3009985
-4.952676	trẹo	-0.3010179
-2.907353	trẻ	-0.2926221
-4.952676	trẽn	-0.2971773
-4.952676	trếch	-0.2698607
-4.776585	trề	-0.2693688
-4.350616	trễ	-0.3407712
-4.651646	trệ	-0.2608628
-4.952676	trệt	-0.2989863
-3.2284	trị	-0.3128837
-4.952676	trịa	-0.2698607
-4.952676	trịch	-0.3008314
-4.077615	trịnh	-0.438484
-4.952676	trịt	-0.3008192
-4.049586	trọ	-0.3078358
-4.554736	trọc	-0.3621727
-4.475555	trọi	-0.5126359
-4.299464	trọn	-0.3665968
-3.092338	trọng	-0.4566374
-4.651646	trọt	-0.2666279
-4.651646	trỏ	-0.2959982
-3.974953	trốn	-0.3156075
-3.640922	trống	-0.3547889
-4.651646	trồ	-0.3002229
-4.651646	trồi	-0.397065
-3.855766	trồng	-0.3423324
-4.554736	trổ	-0.3344964
-4.952676	trộ	-0.3005212
-4.023257	trộm	-0.3205756
-4.299464	trộn	-0.2931729
-4.952676	trớ	-0.3010227
-4.952676	trớn	-0.2999268
-4.952676	trớt	-0.3010251
-4.776585	trờ	-0.2989498
-3.266935	trời	-0.3413184
-3.03099	trở	-1.012742
-3.651646	trợ	-0.3033836
-4.651646	trợn	-0.2687249
-4.651646	trợt	-0.5708908
-3.931487	trụ	-0.3436911
-4.776585	trụa	-0.4757753
-4.139763	trục	-0.4950565
-4.651646	trụi	-0.3666095
-4.776585	trụt	-0.445952
-4.952676	trụy	-0.2965539
-4.952676	trứ	-0.2999729
